,emb_axis_0,emb_axis_1,emb_axis_2,emb_axis_3,emb_axis_4,emb_axis_5,emb_axis_6,emb_axis_7,emb_axis_8,emb_axis_9,emb_axis_10,emb_axis_11,emb_axis_12,emb_axis_13,emb_axis_14,emb_axis_15,emb_axis_16,emb_axis_17,emb_axis_18,emb_axis_19,emb_axis_20,emb_axis_21,emb_axis_22,emb_axis_23,emb_axis_24,emb_axis_25,emb_axis_26,emb_axis_27,emb_axis_28,emb_axis_29,emb_axis_30,emb_axis_31,emb_axis_32,emb_axis_33,emb_axis_34,emb_axis_35,emb_axis_36,emb_axis_37,emb_axis_38,emb_axis_39,emb_axis_40,emb_axis_41,emb_axis_42,emb_axis_43,emb_axis_44,emb_axis_45,emb_axis_46,emb_axis_47,emb_axis_48,emb_axis_49,emb_axis_50,emb_axis_51,emb_axis_52,emb_axis_53,emb_axis_54,emb_axis_55,emb_axis_56,emb_axis_57,emb_axis_58,emb_axis_59,emb_axis_60,emb_axis_61,emb_axis_62,emb_axis_63,emb_axis_64,emb_axis_65,emb_axis_66,emb_axis_67,emb_axis_68,emb_axis_69,emb_axis_70,emb_axis_71,emb_axis_72,emb_axis_73,emb_axis_74,emb_axis_75,emb_axis_76,emb_axis_77,emb_axis_78,emb_axis_79,emb_axis_80,emb_axis_81,emb_axis_82,emb_axis_83,emb_axis_84,emb_axis_85,emb_axis_86,emb_axis_87,emb_axis_88,emb_axis_89,emb_axis_90,emb_axis_91,emb_axis_92,emb_axis_93,emb_axis_94,emb_axis_95,emb_axis_96,emb_axis_97,emb_axis_98,emb_axis_99
BOD09,0.7774698,0.21361375,0.50749034,0.35516864,0.98563683,0.7818898,0.53016436,-1.680648,-0.76119107,0.2397517,-0.35216665,1.1660169,1.7393764,0.7356216,0.7052642,0.95630795,0.71565807,-0.14216816,1.5335091,-1.5629379,0.5643168,-0.6734171,-0.6846543,-0.17805533,0.9748209,-2.4082758,1.2463775,-0.024406143,-0.28928295,-2.068686,0.61618584,0.95451635,0.07217162,0.35580692,1.5038899,1.3373777,-0.043056358,1.2122132,0.7187135,1.0333843,0.31334242,0.31791568,-2.6654472,-0.79923207,-1.2991885,0.23516108,-2.2317307,-1.4258034,-1.070235,0.83190614,-1.2234597,-0.121189766,1.6174526,1.5947119,1.0922153,-1.6123464,-1.48645,0.3726423,0.18346782,-1.7601802,-0.23343426,-0.33871436,1.5362879,0.7077083,1.8031665,0.7504083,-0.55360824,0.43280068,0.794975,1.4011066,0.48974442,-1.4347404,0.44909602,0.8791177,-0.08932638,-0.79489744,0.21341321,0.43085274,0.9149537,-1.2786603,1.3533118,0.9041369,1.9666107,-0.17454238,-0.053737346,-0.0002508997,1.5783517,-0.14429502,0.41762844,1.0048523,1.4274845,1.2278444,-0.6292382,-0.8841669,0.3507878,0.88836426,0.7647436,-0.19610535,-0.96166307,0.622986
LYO06,-0.49434325,-0.9831297,-0.006857135,0.6038052,0.98172104,-0.2793612,-0.20588847,-1.0080601,-0.95625305,0.47615814,0.47673163,0.90011144,1.1799102,0.7728129,1.6106663,0.73268694,0.1253625,-0.84594744,0.77590835,-1.178302,0.2734468,0.26784167,-0.2318891,-0.38848108,0.30581126,-2.6674,1.6704167,0.097969286,0.42661035,-0.7866529,0.13227132,0.7749573,-0.5988718,-1.2676393,0.88007903,0.98691654,0.28036037,0.08840405,-0.3548628,0.84116805,1.4765872,0.7829751,-3.6713817,-0.69571424,-0.98713905,-0.1165271,-1.1872649,-0.6278343,-1.8084034,-0.4668631,0.68414325,0.09433758,0.63718164,-0.23394316,0.041236162,-1.929295,-1.5424297,1.2503573,0.85530174,-0.85740936,-0.06466852,-0.77563334,0.4822816,1.1732705,2.33611,0.49666482,0.42764804,-0.22078568,0.2869509,1.9273709,-1.8276088,-1.6505253,0.16923305,0.13045946,-1.8688838,-0.38590592,0.32776836,1.5874532,-0.4060177,-0.2446279,0.5147935,1.858727,0.538186,0.054976232,-0.273006,0.036719367,0.12880352,-0.73149604,1.1085893,0.13802075,1.9954724,0.026008511,-0.7518422,-1.1741446,1.1434836,0.98876756,0.7051732,0.24013926,1.064892,-0.26524234
LDV02,0.38130063,-0.32947677,-1.1841795,-0.05876225,0.9988853,-0.091538765,0.21732093,-0.34527022,0.21411665,-0.09223288,-0.33158183,-0.0388211,1.3099006,-0.31710583,0.99176157,-0.52946293,0.222675,-1.6767877,2.3216906,-0.22834894,0.18317759,0.45220435,-0.3280756,-0.55730104,0.70395046,-0.8941617,0.5840952,0.4878536,-1.4450629,-0.5607159,0.6750584,-0.6169941,-0.2372685,-0.32832953,-1.0921848,0.13091704,0.5824554,0.19175898,0.61993325,-0.4259936,-0.011029225,-0.35865152,-1.8692453,-0.037574306,-1.112497,0.19419456,-1.4170539,-1.7600337,-0.39179787,-0.27771422,-1.0327011,0.069938466,0.42732665,1.1478511,0.6884784,-2.2220914,-1.7420019,0.74202496,0.6790213,-0.90726626,-0.49056432,-0.12453274,1.1370119,0.676632,1.8593525,-0.5090768,-0.099493615,-0.6385745,-0.48343065,1.4618012,-0.42384276,-1.357828,0.31010106,-0.4896853,-0.954911,0.19230427,0.10149343,0.8400235,0.8416998,-0.64646786,-0.32653663,0.67643124,0.1553318,0.46972436,0.65491897,0.7519944,1.3326659,-0.004499803,0.92670983,-0.2534441,0.67373526,0.61924756,-1.202526,-0.101322,0.4479205,0.22900836,-0.6226007,0.68998224,-0.5904046,-0.5682417
UPS06,0.55078924,0.47953698,-1.2315321,-0.68324524,0.911048,0.47234797,0.72293997,-0.9928901,-0.46558785,-0.2864674,0.74996835,-0.87340504,1.6696106,-0.29277295,0.9055772,-0.45595938,-0.2601547,-1.5131986,1.2020652,0.1051187,0.011265689,0.9033442,-1.0070927,0.52133936,-0.32182324,-2.067192,1.0266087,-0.74932057,-0.6955424,-1.7060019,-0.08513645,0.7490154,-0.34496695,0.7485608,1.6519865,0.7303518,-0.71637166,0.8684835,-0.26611346,-0.8048493,1.1160318,-1.2093253,-3.8460562,-1.3228511,-1.353913,-0.15308318,-1.3922888,-0.012132159,-0.9261542,0.11042398,0.35662535,-0.67782354,-0.06494768,0.7016047,-0.1630023,-2.5042489,-0.70152104,1.3994863,1.1838607,-0.8474161,0.7127664,-0.7890208,-0.19939673,1.475998,1.4441274,-0.100423545,0.37074903,0.4620525,0.39557946,1.7475617,-0.32066065,-2.573791,-0.46055108,-0.7393854,-1.4571917,-0.22719829,-0.1445965,0.8936362,-0.18476747,-0.9966726,1.2120501,2.336217,0.9663902,0.7701163,0.2255919,-0.41316548,0.4712671,-0.227821,0.49294513,-0.37625352,0.8159123,0.60443956,-0.92438215,-0.28200614,0.18708159,0.7099546,0.04072124,-0.119508386,-0.69530994,-0.3608964
LRE06,1.2930572,0.37605625,0.22311401,0.84154373,1.0760336,-0.56835216,1.4835086,-1.7537222,0.5194773,-0.2510927,0.72883344,0.26092386,2.4868774,0.32227853,1.4242855,-0.22981872,1.1754501,-0.69370174,1.3745415,-0.088924155,0.9895131,-0.45530376,-1.1281012,0.6984771,1.2106975,0.26628748,0.783035,0.053325027,-2.1917279,0.042713903,0.5197017,0.09368482,-1.1669184,-0.81574607,-0.6099946,0.09210294,1.4290653,1.9061178,1.0047615,-0.11025649,-0.2666939,-1.5994291,-3.0187047,-0.19241695,-0.6234856,-0.645415,-1.5168469,-1.5320706,-2.1189942,1.0199884,-0.11355015,-0.7532285,1.0143975,0.92911685,0.040475443,-2.8669212,-2.32564,0.993127,-0.5732609,-1.6983855,0.3012192,-0.55418694,0.11633797,0.7038812,1.424042,-0.7775429,-1.3486167,-0.14860766,1.7544518,1.3579944,-0.09031508,-1.1898378,-0.25172547,-0.088471904,-0.77399176,-0.52943045,-0.72333896,1.8767757,1.3400762,0.82866305,0.6213783,1.6389295,0.29974538,-0.16627173,0.86455315,0.98482513,0.41107073,0.05500711,0.60451776,-1.2511811,1.4198939,0.02990148,-0.99416447,0.45335215,1.0324397,1.3721032,-0.7766288,-0.8995593,0.124506846,-0.3839529
ANT01,-0.42157593,0.4088244,-0.12642513,-0.023221148,0.55803514,-0.15334314,0.329906,-0.59449697,-0.7231512,-0.09991929,1.9092027,-0.060819,1.4601173,-0.074076176,0.44766912,-0.034317598,0.4332825,-0.5508415,0.9041789,-0.60418427,-0.32441813,-0.11805957,-1.2317499,0.318503,0.44103548,-1.5601604,1.9480512,-0.53261894,0.9981217,-1.1953009,0.441832,0.7729868,0.023522547,0.39423895,0.26534456,1.7674433,0.5562261,0.43765187,-0.14972545,-0.041247748,0.41554385,0.3287353,-3.343365,-0.9986623,-0.15617189,0.37723213,-1.0785346,0.5577269,-2.0236337,-1.0958844,0.1284414,-0.9982372,-0.120925814,1.1135476,-0.05136834,-2.3830628,-0.07752073,1.842465,1.8258884,-0.8195264,0.09563823,-1.5388238,0.5489417,0.7710254,0.82219714,-0.50002605,0.29654706,0.46612892,-0.3693835,1.7748758,-1.2820882,-2.243493,-0.6357068,-0.30068696,-2.6027129,-0.7360274,-0.17322601,0.2634613,0.6301457,-0.7554143,0.8411887,1.419638,0.31203082,0.5946812,-1.0703933,-1.137485,1.3510947,-0.15488218,0.16135535,-0.0494642,1.1561961,0.32205656,-0.9437743,-1.2839779,0.34377912,1.3213383,-0.09053383,-0.96733016,0.5972085,0.8368077
UPS12,0.85616255,0.7738842,0.63037324,-0.12908334,0.22683951,-0.0019350221,0.08945764,-0.77968675,-0.34290162,0.111692995,0.7677971,-0.13683672,2.2158523,1.634832,0.5477429,-0.8585368,0.37188476,-0.3298534,0.26406628,0.30060259,0.340311,0.75764465,-0.5041327,0.053976037,0.47563457,-2.112924,2.076023,-0.28033364,-1.0136691,-0.78384084,0.13669257,0.544096,-0.9462458,-0.29450688,0.14333068,0.6402159,0.6785625,1.4207854,-0.7059641,0.38307983,0.21973637,0.09251613,-4.5996127,-1.7939605,-0.2541268,-0.3045079,-0.42065674,-0.787376,-1.8400009,-0.4073782,0.0589363,0.5061634,-0.35526666,0.12889461,-0.27574274,-2.6812778,-1.0550975,2.2823617,1.4250243,-1.468725,1.0034915,-0.2793935,-0.061272398,0.3914917,1.2028478,-0.27044955,0.8635136,0.99825203,0.37359428,0.3397149,-0.7674679,-1.7194209,-0.4443234,-0.6305587,-1.3291781,-0.53214645,0.4207995,0.8302139,0.7191105,-0.5208181,0.782356,2.0999646,0.70815444,-0.22445656,-1.1076263,-0.8781636,0.67111224,-0.011444723,-0.17303008,-0.41410682,2.5935404,0.67516935,-0.09920381,0.008256348,0.27051947,0.30166677,0.85544705,0.0002257569,0.17762452,0.16414055
BOD12,0.2658819,0.45737913,-0.63940024,0.11580589,0.5233191,-0.38327318,0.55111325,-0.97692525,-0.49368143,-0.9348936,0.43501756,0.788096,1.2345397,-0.42918482,0.9597391,0.4102695,-0.03530842,-1.021715,0.6536802,0.59194034,0.5132477,0.54974383,-2.2126622,1.1001594,0.1572405,-1.3864421,0.32542005,0.35886452,-1.4895251,-0.4723398,0.3261829,0.90640193,-1.0958825,-0.4824473,-0.49963263,0.6366199,0.2267814,1.2727991,-0.32591194,-0.17532386,0.8161987,-0.8475734,-2.3941226,-1.44766,-1.9817684,1.470856,-2.213108,0.34362546,-1.6395621,0.047302652,-0.40589318,-1.2014868,1.1370052,0.91308326,-0.21280737,-2.0980995,-1.5950623,0.69239974,0.6722193,-2.127591,-0.4869068,-0.7261724,0.80959415,1.8222828,1.082953,-0.6484281,0.44771108,1.2965264,-0.4202905,1.8376496,-0.932158,-1.5746787,0.4536456,-0.38442767,-0.84819996,0.70142853,0.20437035,1.7812593,1.6236849,0.5071996,0.25015718,1.3685797,-0.07175933,0.8096571,1.3834755,-0.23376064,0.6643319,-0.1927524,1.000479,0.45602992,1.2601262,-0.30140924,-1.642464,-0.7454546,1.1699177,1.3643371,0.33113587,-0.33359957,-1.312136,1.2515808
OCM08,0.40694818,0.13591735,0.47606915,0.41240585,0.11165021,0.23202075,0.41007486,-0.7071891,-0.9091261,-0.068979606,0.086103246,0.0068984483,0.52967477,0.36549506,0.83559006,-0.21570621,-0.52737033,-0.5743163,0.5283538,-0.7419009,-0.021429915,0.68644714,-0.36200675,0.18452217,0.3565917,-0.888862,1.5879872,0.40085787,-0.76343757,-1.4479355,0.10760026,0.76165605,0.64201087,0.192725,0.29804236,0.13938513,0.14786638,0.627333,0.12902315,-0.14727235,0.31499666,-0.61491865,-2.2222557,-0.20676816,-0.41371125,-0.13863222,-0.18497838,-0.40219072,-0.22959276,-0.0452227,0.14804621,-0.7829807,0.7438758,1.1819543,-0.32941,-1.9648602,-1.1156387,-0.47906715,1.7026782,-0.98456055,0.18211128,-0.45971295,1.1214921,0.5401714,0.6987575,-0.24385001,0.1602204,0.30014783,-0.5028094,1.3618822,-0.5022052,-1.5749277,-0.2641933,-0.46770483,-0.64290535,0.6425034,0.29112485,0.38892043,0.08551606,-0.032423656,1.2076911,0.9996075,-0.26961565,-0.21787389,-0.33588842,-0.2345378,0.84198534,-0.54058623,0.024551779,0.3365711,1.5900763,-0.5071762,-1.4823931,-1.14522,0.99579746,1.6649283,0.6825125,-1.1745118,0.7274508,-0.115497656
UPS10,0.6585998,-0.28425178,0.2749302,0.25678965,1.8653177,-0.68061274,1.1344327,-2.379549,-0.6400542,-0.6438436,-0.8683687,1.4709824,0.7623022,-0.7071335,1.4680221,-0.25776023,0.68897283,0.8238412,0.70406353,-0.09147857,1.2045822,0.12203513,-1.1091685,0.043058857,0.62969035,-1.1013377,1.8101317,0.78999245,-1.0287459,-0.4327226,1.1718634,1.1273965,0.27188066,-0.6427025,0.44474646,1.6629112,1.0490067,1.6604687,0.6410164,-0.109818324,0.52284837,-0.940842,-3.8654206,-1.2077076,-1.4890958,0.6881051,-0.9134012,-0.84564495,-2.4919991,1.3378332,-0.2038971,-0.3104687,0.040583067,0.56486577,0.8632515,-2.267907,-1.6023902,1.4025248,0.025080975,-0.76514333,-0.6985757,-0.59416187,0.9766058,0.98765,1.9302268,0.047189046,0.21380785,0.86655414,0.020045558,0.94778293,0.3253694,-0.64851844,0.34946153,0.5554474,0.07415318,0.7874516,0.530842,0.6391534,0.64731157,-0.53424424,-0.09672602,2.1575723,0.46073657,1.3013414,2.1787102,0.93421066,1.0848974,-1.0623732,2.2227569,0.1803372,2.5108173,0.38688007,-1.664109,-1.0599704,0.14069234,0.089258574,-0.2166745,0.593566,-0.7000654,0.2758465
BRE14,-0.1011386,0.63604856,0.2699892,0.25108662,2.4946012,0.6891755,-0.5882328,-2.2511322,-1.0566773,0.33982408,-1.0751897,-0.6215135,0.90361905,0.08629247,0.49570742,-0.13701199,1.0752391,-1.7543017,0.57759225,-0.16512856,0.37804237,0.16464576,-1.9516265,0.13390161,2.0499172,-0.4169482,1.9822689,-0.83801085,-0.6126286,-0.08370383,0.8016613,0.8780393,-0.5916821,-0.8520289,0.8893519,1.1320759,-0.11804037,1.6336234,1.0352218,-0.14555259,0.67412025,-0.10884172,-3.2391417,-0.7778709,-2.0553727,0.4561511,-2.8792794,-0.14220434,-2.0070965,0.58753294,-0.047914367,-2.1939802,1.5184226,1.8156346,-0.02076153,-3.0573575,-2.734614,0.46966392,0.062996246,-1.7491074,-0.053827796,-0.6671655,-0.09226646,1.0960264,1.4264798,0.11035074,-0.3121436,1.2108728,-0.08919378,1.3980576,-0.12507324,-2.1848912,-1.227226,0.8560021,-0.6396585,-0.86964655,-1.3386518,1.1429735,0.6762019,-1.0637007,0.3652945,1.2992108,0.3005142,0.60304403,0.28469086,1.2580118,1.4362278,0.84842587,0.031781733,-0.19698025,2.0863814,-0.9555056,-1.4143623,-0.77579606,-0.12854706,1.2856622,-0.9361365,-0.21107852,-0.355017,-1.0331426
LOR01,0.6822442,0.8188811,0.36867303,-0.90192497,0.3351837,-0.14493132,0.54795635,-1.0558416,-0.5991441,-0.14861444,1.136979,0.81828475,0.9820516,-0.25248033,0.18988654,0.19828162,0.4550074,0.07698389,0.92974734,-0.24995443,0.8562102,-1.1907898,-1.6396552,0.28926486,0.57724065,-1.36793,-0.40942487,0.38420233,-1.2470448,-0.6343678,0.08482099,-0.1641927,0.46187314,-0.5741448,0.27588418,1.6090581,1.3814392,0.51566046,-0.47208214,0.9425021,0.8254907,0.1562363,-2.9066465,-0.96542996,-0.50503373,2.2076378,-1.7167168,-0.58589345,-0.9470089,-0.0352947,-0.2019783,-0.91104287,-0.32041135,1.6865098,0.52838093,-1.6808498,-1.4919308,1.0842744,1.1930952,-1.173442,-0.15485907,-0.2367662,1.6409892,1.4284424,0.4636782,-0.3095923,-0.80754745,0.13588503,0.07436711,1.1339519,-0.65818274,-1.5893989,-0.28179654,-0.5075655,-1.290251,-0.30566671,0.28339353,0.3094582,-0.19065806,-0.35753837,0.45042807,1.3974494,1.1114299,-0.43640864,-0.23578133,-0.35913283,0.5896967,-0.15458724,-0.25599626,1.3109828,0.7303631,0.7235043,-1.3321663,-0.85683393,0.2145113,1.897715,-0.042064503,-0.8012015,0.029073983,1.3186233
AMU09,0.24112067,0.86946464,0.31760144,0.15174107,-0.016562533,0.4676524,-0.08255161,-1.5357,-0.33578005,-1.1783682,-0.016301982,-0.06383105,1.3114029,-0.14028019,0.5674203,0.0954114,-0.37142295,0.17672089,1.7652284,-0.16042106,0.6962791,0.16619892,-0.7831762,0.079202786,0.6386454,-1.833792,1.3924924,0.053572346,-0.90443736,-0.6105989,0.108521745,0.2209575,0.6586457,-0.28769156,0.36810988,0.55737144,-0.38100806,0.9982677,0.16729696,-0.16532776,0.8414262,-0.34184542,-2.4690669,-0.31987622,-1.0322374,0.83116776,-0.9973398,-0.8245349,-1.3515561,1.0342065,-0.65110224,-0.62137383,-0.1383328,1.3021673,0.73322695,-2.482509,0.04884296,2.1121256,0.8829807,-2.0137072,-0.111547075,0.28757587,-1.1657006,0.7913644,1.6161448,0.093862616,-0.13715069,1.5719228,-0.5082364,0.058916707,-0.02618321,-1.4208697,0.13309492,-0.70452935,-1.3046468,-0.34642428,-0.28192222,0.2977038,1.0301731,-0.45198366,0.09595791,0.48000008,0.34620684,1.0476544,0.38648888,-0.38082507,1.3160043,-0.15064007,1.3573364,-0.17641759,1.6044505,0.440711,-0.47988793,-0.34954268,0.2858278,0.48025772,-0.7227169,-0.38969672,-0.91027665,0.18228896
BFC07,-0.21622698,-0.07313768,1.176011,0.352159,0.27288,-0.14185004,0.32924643,-1.7126404,0.695936,-0.7666498,0.5187966,-1.0428425,1.1496109,0.5389883,0.54031014,-0.9974656,0.065564565,-0.31175297,0.8828023,0.6664993,0.22030137,0.24507454,-1.294185,0.40400237,0.75313205,-0.21944542,0.94868785,0.45400968,-0.51619565,-0.6161318,0.51607674,0.80857927,0.06415884,-0.29943058,0.5451659,0.9266171,0.734717,0.6394534,0.30905727,0.10731309,-0.44596642,0.07882739,-1.4814614,-0.13959043,-2.095686,0.052398495,-0.992299,-0.43550813,-1.1163726,-0.3326795,-1.2249447,0.80134165,0.41644207,1.2756059,-0.44776314,-1.862045,-0.66098666,1.2486963,0.34916115,-0.882965,-0.06360852,-0.25286275,0.388421,1.1613829,0.12909447,-0.7552086,-0.28665993,-0.46224797,0.14167881,0.6265767,-0.6834561,-1.271539,-0.53467685,-0.09575307,-1.0423465,-0.0005719584,0.286171,1.0966241,0.118452,-0.2009441,0.44568568,1.6783385,-0.7320888,0.61363614,0.47986192,0.23582497,-0.46679276,-0.34294787,-0.40946317,-0.67945653,1.519411,-0.2541938,-0.49541274,-1.3292593,0.57018316,1.1130742,-0.36452988,-0.85837585,-0.5062507,-0.0046393923
HES07,-0.9174211,-0.015688792,0.3410966,-0.18865424,2.145829,0.284937,-0.3743502,-2.10765,-0.5492,1.7907325,-0.39619008,1.0192395,1.3824346,-0.44664377,0.18973419,0.6410176,0.89001524,-2.593069,-0.25721207,-0.15238471,-0.8581717,0.5612518,-0.7994869,-1.1700209,0.77765584,-1.3502054,1.7900627,0.35039252,-0.4528169,-1.6297456,0.59585375,1.5004846,-0.6082851,-0.6101352,1.111145,0.8368265,0.8227521,0.9773128,-0.20512098,0.23808339,0.27562335,0.46167466,-3.5915391,-0.85296327,-0.67491686,1.8994498,-1.7329564,-1.5299373,-1.0844762,-1.4980084,0.09912279,-0.4156915,0.6154836,-0.077323556,0.57084304,-3.6409228,-2.9264584,0.5164252,0.043696906,-1.8463793,0.17083211,-0.31985557,0.34668288,0.84709233,0.8535583,0.68151677,1.1897595,0.9626178,0.54566973,2.4128404,-1.4359674,-2.771441,0.5382233,-1.032973,-1.8388187,-0.94713646,-0.17388637,0.5920971,0.28942183,-1.6732259,0.86285836,1.9244463,0.95382,-0.2550021,-0.55844,0.46252805,0.5758628,-1.2001599,0.9367661,0.9144906,0.6944695,0.5409559,-2.6917334,-0.6189475,0.19981974,1.8528603,-0.15613835,-0.24158289,-0.24556664,0.6069778
LRE10,-0.4025049,0.26257133,0.42272577,-0.34922463,1.8580245,0.8279696,0.501997,-1.4397557,-1.024331,-1.5070592,0.8495034,0.5011126,0.2589103,0.12816541,1.4013954,-0.48389053,0.11143504,-1.1095,1.4046068,-0.8232993,0.46161172,-0.07879644,-1.6470853,0.12574933,0.37998703,-0.09724919,0.2829256,0.36413485,-0.089440376,-0.29036933,0.91351485,-1.0462025,0.8847634,-0.3758145,0.65662706,0.9204687,-0.19945262,0.86122984,0.76427203,-0.44366696,1.4480143,-0.71154255,-3.3637676,-0.5758789,-1.3862412,-0.29028475,-1.9650215,-0.51240414,-0.45657972,-0.33281988,-0.44488716,-1.4313233,2.167317,1.7532247,0.13862462,-2.3942487,-1.6023339,0.2615766,-0.2583627,-0.70629936,-0.12641211,-1.5774503,0.5576765,2.0382535,1.1722794,-0.43757874,-0.13745368,0.04224849,0.123741195,0.9155608,0.36114147,-2.1131768,0.26675788,-0.5115962,-1.2685796,0.2466847,0.19702668,-0.81295437,0.81456435,0.117130384,0.34350213,1.2308323,1.3130919,0.8258738,-0.034515146,0.8377111,1.2744062,-0.013030877,1.1584841,-0.5942347,0.22270815,-0.19382752,-1.9022018,-0.93309766,0.40583125,1.0968418,-0.12467257,-0.72682667,-0.63882995,0.22750549
BRE12,0.11675876,-0.29169458,-0.22568378,0.47891924,1.7023473,-0.044945642,1.1682382,-2.1879027,-0.66021514,0.36260742,-0.36376348,0.14748114,1.4770364,-0.3725244,1.4408046,-0.84972835,1.2087306,-0.60778224,2.2771182,-0.002498734,0.094099045,0.3600712,-1.2305796,0.20654844,1.7119614,-1.0101097,1.6010857,1.1022108,-1.700294,0.54557323,0.5833712,-0.57448125,0.24804255,-0.5964251,-0.3052245,1.3304944,1.6288242,1.7980847,1.4981601,-0.68568236,-0.0015211601,0.59765697,-2.8014302,-1.2285906,-1.3251824,0.16580364,-1.7022004,-1.7107675,-1.2791132,-0.2699303,-0.9093904,-0.9804572,1.7341036,1.4260074,-0.4956806,-2.7620192,-1.8273203,1.8097765,1.595695,-0.5520627,-0.5839873,-0.49797612,-0.5951434,0.24741377,0.9100306,-0.4344872,-1.3555398,0.008146778,0.2098459,1.5797654,-0.68264765,-1.2903607,0.59206325,0.73215526,-0.57848424,0.3967483,-0.39649028,1.3934546,1.0389392,0.26893055,0.8957514,0.18552366,-0.41016582,1.0896918,0.40111324,1.6760806,1.0636876,0.6499006,1.1740762,-1.1721942,1.0264848,0.117710166,-1.4286244,0.31902328,0.10047126,0.15154462,0.06824559,-0.63200885,-0.04869477,-0.32084027
GRE03,2.474937,-1.213671,-0.5108487,0.6746744,1.0689732,-0.9167304,1.7648731,-1.7871089,1.1555338,-0.80308276,-0.6674154,-0.9679524,0.7640863,-0.7069274,-0.45150098,-0.31694615,1.3743043,-0.7383343,0.7730118,0.25704002,0.5209455,0.15910496,-1.248767,-0.022126677,0.5589626,-0.3720256,0.025561638,1.2672594,-0.61891943,-0.072482936,0.3473757,0.60332924,-0.89325786,-1.1231078,-1.3249776,-0.11500685,2.1469572,0.8433241,0.2671901,-0.01396534,-0.4328113,-0.057234302,-1.30587,-1.0158889,-1.6234838,1.1260685,-1.8669975,-1.8016762,-1.857971,0.25460538,0.77832156,-1.000831,0.6251221,0.4422116,0.6856058,-2.2185507,-1.8479837,1.1757525,0.13028747,-1.5200465,-0.6662339,-0.11395804,0.0400509,0.96016383,0.8846798,-1.0533308,-0.46608064,1.7168341,-0.041239582,1.2680968,-1.0195712,-2.2892582,0.26901567,0.522896,-0.7937888,-1.5908234,-0.53106594,1.3457084,0.9979582,-0.012591348,-0.0063723987,1.6396794,-0.04236558,-0.7980601,2.0898516,-0.068890445,-0.046942167,1.6649842,1.0188066,0.2529779,1.3610457,-0.32019454,-1.7421726,-1.694299,1.6615064,1.8908818,-0.801244,0.6054093,-0.32545167,0.52564895
BOD10,-1.2031604,0.678336,0.7532426,0.39009002,0.83623767,0.32584286,0.6407297,-1.6209321,-0.74779797,0.15972267,0.67566043,0.20187707,0.42854995,-0.45643583,0.6636294,0.34230715,-0.105920434,-0.9101672,1.7171948,-0.6476411,0.44895527,0.17535207,-0.7207114,0.39161605,1.6532282,-0.11038672,1.6650202,0.41223192,-0.80803055,-0.35290256,-0.21462572,0.6765482,-0.44263247,-0.33541316,0.061823096,1.503378,0.102579184,1.1270401,0.49809048,-1.2503495,0.9078108,0.23506579,-4.2925262,-0.3279669,-1.5118032,0.54401016,-1.8620498,-1.8963118,-1.067515,0.35163274,-0.26915815,-1.2104274,1.3192875,0.78449583,0.48024014,-2.4535728,-2.3184009,0.08812733,0.1864498,-0.9966073,-0.32885078,-1.6599741,0.35044488,1.9509492,1.4176681,-0.42179644,0.36013168,0.48706076,0.10675234,0.101392,-0.6239784,-1.883531,0.5227754,-0.4091325,-2.6128116,1.2148734,0.09982975,0.94984204,0.54126686,0.63725936,0.9780725,0.4637744,0.7618307,0.7424111,0.6569456,1.8782821,1.0658456,-0.66153014,1.4881003,-0.9773402,0.23198068,-0.67443895,-0.6290845,-0.57467055,-0.124141775,1.849664,-1.7491543,-1.0501434,-0.27354228,0.09618722
LDV05,-0.20697692,0.14652245,-0.914763,0.6373827,1.5266838,-0.44216806,0.77041006,-2.4313092,-0.65534586,-0.9724649,0.1757971,0.48477542,0.9029344,-0.09187304,1.1561854,-0.25738448,-0.0823629,-0.2693166,0.62899727,-0.6506427,-0.013726555,0.70929325,-0.352665,-0.09468821,1.0946437,-0.3178972,1.9385653,0.7162409,-0.74331343,-1.8101445,0.042881794,0.43924263,-0.032874785,-0.55374753,0.4312713,1.5512995,0.2515312,0.44941413,0.9944866,-0.1904432,-0.89920855,-0.06628412,-3.3746347,-1.3941066,-1.7123364,-0.56074363,-1.7209748,-1.0995437,-0.86394596,0.80096096,0.26131937,-0.46968788,0.8422967,-0.0589814,0.46607697,-3.9711895,-0.82845676,0.7786361,0.5489607,-1.1679503,0.24653754,-1.326721,0.6169402,2.6631114,2.091133,-0.41223943,-0.6212603,-0.24327277,0.8845279,2.2519653,-1.414407,-1.9009961,0.9958957,-0.41269135,-1.007713,0.25476053,-0.4185147,1.0304486,1.2103771,-0.4780051,0.73158693,1.5687312,0.16157119,0.5289114,1.5757076,-0.101819366,0.2638257,0.6399158,0.5378649,-0.23756221,1.6701032,-0.60861075,-1.7534212,-1.506856,0.32674003,1.6159742,-0.36001906,0.2978119,-0.6966919,-0.037516452
SEN02,1.298845,1.2817255,-0.86621773,-0.3794661,1.2334915,1.0767345,0.8026988,-1.7953233,0.89470136,-0.056462094,0.50720584,-0.5695257,0.9534845,0.14978206,0.57135475,0.010087738,0.07984352,-2.3302877,1.6271847,-0.44121635,0.42679277,-0.22166604,-1.0231692,-1.2159672,0.531933,-1.4373642,1.2042484,-0.14278784,-0.26901853,-0.4984809,0.7462053,0.30700272,0.2947529,0.27147034,-0.38989902,1.3684312,1.8075273,1.6915885,1.1720303,-0.00354483,-1.3276368,-0.67250425,-1.8649424,-1.5714656,-0.30393633,0.5678563,-1.2932477,-0.72122705,-0.8263798,0.6327406,0.4242872,-0.17693958,-0.6664809,0.4127249,0.8989282,-3.0384371,-0.11356083,1.2771605,0.7413704,-0.9545854,0.54283774,-0.99317384,0.28946784,1.0079969,0.1995672,0.20894814,-0.16579048,1.021964,0.19001876,1.9381394,-0.78817576,-1.3536457,-0.21393856,-0.25577945,-0.68071145,-0.85915345,1.1876247,0.994945,-0.35836357,-0.9716238,0.31591853,1.5061635,0.19937785,1.2873001,-0.25455812,-0.13533184,0.4149416,0.4731518,0.3615989,0.502008,0.8504776,1.0165126,-1.3736293,-0.50853866,0.072081804,0.9478491,-0.20879841,-1.1537055,0.98771346,0.54310274
HES03,0.009118667,-0.15647203,0.84888476,0.07773855,1.2812655,0.15377754,-0.61063874,-1.1845139,0.32881862,-0.72710514,0.2553783,1.6686583,0.62215847,1.141694,1.5294864,-1.0302422,-0.4578358,-0.36233178,1.2873927,-0.16051291,1.0472217,0.39759567,-0.3469907,-0.17240044,0.6442696,-0.8681497,1.2253621,-0.30174333,-1.0564315,0.20697215,1.0735486,-0.32030758,-0.27455777,-0.16906449,0.18188718,-0.1705618,1.8130838,0.65733504,0.48506433,-1.1201254,1.2891796,-0.7597606,-4.3935895,-0.41219822,-0.9028106,-0.10987934,0.22096232,-0.18565169,-1.1949484,-0.8842571,-0.9131211,-0.7381662,2.5992467,0.66390014,-0.46410593,-2.3112996,-3.0192883,0.5885042,-0.40622735,-1.2959465,-0.26082858,-1.0952946,0.008733224,1.5004524,0.84496593,-0.7156077,0.3653422,0.8157958,-0.5383413,1.2009214,0.04411201,-1.5879992,0.0069504576,-0.7001023,-1.1761994,0.88702637,0.40132582,-0.33577067,0.1037933,0.662138,1.2401474,2.4100196,1.136912,0.8596386,0.031371266,0.991285,0.36503473,0.13461024,0.86767143,0.32705966,1.6371322,0.002494418,-0.32401347,-1.2998368,0.42913353,0.08739967,0.43393824,-1.0051162,-0.12641546,-0.98872876
OCM11,1.1958778,0.33669394,1.3609889,0.3618012,1.3845123,-0.043147277,0.88790697,-1.9307511,-0.4890876,0.027530583,-0.96877414,0.6517948,-0.26476747,0.8793775,0.77317256,-2.4203727,0.773368,0.3172402,0.50289774,-2.1687784,0.917506,-0.15117201,-1.8134577,-0.3585685,1.6641752,0.12285669,1.8196902,0.6800957,-2.3061697,-0.6910018,1.4973238,0.5924685,-0.24187928,0.074608386,-0.79322803,0.15860674,0.87906945,0.9496758,-0.8189223,-2.2239616,-0.05730893,0.061363325,-2.998642,-0.64300734,-0.849283,1.0674651,-2.1936746,-0.88580096,-1.984868,0.80258024,-1.6706485,-1.2256646,1.0681411,1.382279,-0.27415466,-2.5371912,-2.2920425,0.4113095,-0.068198904,-1.2775857,1.0496843,-0.73453045,-0.3191566,0.26313198,1.2374433,-1.3373529,0.68281305,1.2690998,1.300304,0.24733926,-0.33345878,-1.7371782,-0.2700527,-0.7757827,-0.2844961,0.11086362,0.46314305,1.0116161,0.14836392,-0.13434134,1.3754381,1.2687496,0.52994126,1.2213235,0.630367,0.61916876,-0.4710943,-0.0020104623,-0.3488297,-1.0061227,1.1273731,1.261322,-1.4872429,-1.2678322,-0.058025774,0.52181774,0.54158044,-0.35069644,-0.17111541,0.9907402
NOR12,0.9146884,0.3263664,0.2801287,-0.33248633,1.4540881,-0.02487016,0.8985973,-1.9411985,-0.7286836,0.13904239,-0.6968906,-0.0527226,1.8228235,0.10375152,0.68241745,0.2442377,0.63301075,0.3017351,1.3535925,-0.8573287,0.6914011,0.06388531,-0.9883789,0.55313265,1.4361836,-1.6159928,1.5664183,0.33520338,-1.9173113,-0.050041277,-0.39433396,1.1232669,-0.1801045,-0.7884044,0.40702724,0.6573601,0.41081277,1.4174842,0.7669365,-0.12109446,0.92481726,-0.1828782,-3.6767066,-0.2987428,-0.5422615,1.3269194,-2.3133583,-1.0143667,-1.723719,2.0849128,0.046109773,-1.6569558,1.6587822,0.58158165,-0.019539433,-2.5054219,-1.2884499,0.7640942,2.0259802,-0.85072607,-0.6270348,-0.39020514,0.93235666,1.1487261,1.7926294,0.7217487,-0.8587979,0.69737804,-0.03978047,1.3560009,0.30792716,-0.8962119,0.055121813,-0.050884653,-0.6926004,0.6459551,-1.4393024,1.8994955,1.2665353,-0.61314446,1.1265663,0.20288765,1.4306165,0.6207115,-0.12695773,0.55904305,1.4640409,-0.39011118,1.1283274,-0.8288287,2.0864677,-0.05437802,-0.88475704,-0.1430553,0.0629543,1.552219,0.622612,-0.039874822,-1.0510924,-0.554429
BOD01,0.7169663,-0.14349057,0.1095628,0.5894101,1.7669886,-0.42964754,-0.61281705,-1.3534341,-0.043670926,-1.0920058,-0.2533232,0.28596318,0.7244531,0.9972714,-0.3754722,-0.086001575,0.6566019,-0.3925064,1.143931,0.2703418,0.34974682,0.47699338,-1.0957354,-0.43649986,1.8099282,-0.3159197,0.5387642,0.080315016,-1.2130655,-1.0283248,0.5106538,0.7283177,0.21995008,-0.21021394,-0.64262295,-0.122336045,1.2051013,1.0343013,-0.50612944,-0.3230553,-0.39815238,-0.009163737,-3.1375892,-0.46723828,-1.0339832,1.0782155,-1.3792803,-0.14745218,-0.3233644,-1.6451483,0.13606934,0.12694378,1.5172312,0.51817703,0.6452838,-1.8259817,-1.4713436,1.550894,-0.37973547,-1.1181514,-0.5402086,-1.1939027,0.4789353,0.17741506,0.65217805,-0.56182027,0.62012535,0.9839922,-0.6045444,1.7874658,-1.0188799,-2.6633348,-0.5293225,-0.8638,-1.3620635,-0.07495798,-1.1817569,1.71239,-0.07872572,-0.3376239,0.71253633,1.447502,0.29844058,-0.23147796,1.0122094,0.27353552,0.7734262,0.63719124,-0.4720644,-1.2874928,2.063216,-0.39608926,-0.15525867,-1.1017433,0.72399086,1.7566322,-0.2156842,-1.577144,-0.63964087,0.2035778
SEN01,-0.4327382,0.49543637,0.16502449,0.04018105,1.1066455,0.15707476,1.155358,-0.32723102,0.3763444,0.14584465,0.8594175,0.46647963,1.2486391,-0.27888727,0.7673981,0.72255766,0.4445057,-0.6728044,1.5294691,-0.65340817,0.2699883,0.17358665,-0.8572945,-0.051643714,0.3371738,-1.9480875,0.32230327,-0.35836238,0.06386316,-0.6045758,-0.19563612,0.8648307,0.06259238,-0.30963612,1.5832335,1.1188459,0.57258266,-0.13881825,-0.058040425,0.0623626,0.52512294,-0.18714274,-1.584488,-1.3132042,-0.30225548,0.010985346,-0.49830842,-0.5377073,-0.95216644,-0.3642291,-0.70594764,0.041082717,-0.1308339,0.8592388,-0.16373861,-1.7673614,-1.5907599,1.1519678,0.77063537,-1.4900256,-0.79899377,-0.7082275,0.7482205,0.49004394,-0.060935766,-0.04059412,-0.4576646,0.38621765,0.5870562,0.8573862,-0.8417047,-2.3135934,-0.5179951,0.16147286,-1.4867363,0.02899353,-0.46402273,0.5050974,1.3289828,0.013691666,0.42903757,0.6132635,0.2392595,0.88475406,-0.059717603,0.14196755,0.5740895,0.33981702,0.5181251,0.24571396,1.1533091,0.43062118,-0.77490157,-0.08620202,-0.36503994,0.86030746,1.500528,-0.538676,0.64371866,0.9003339
BOD03,0.97196376,0.104278125,1.736834,-0.41685247,0.5682555,1.0781616,1.3566835,-2.0956597,0.6252633,-1.0302953,0.5017098,0.17421713,1.2373,0.2492211,-0.21133362,0.3928991,0.18350817,-0.15431924,-0.13915692,-0.52553874,-0.08593665,-0.5960724,-1.0693932,-0.008697465,1.3318042,-0.92681724,1.0139922,-0.11544179,-0.590726,-0.89451015,0.52599657,0.61378425,-0.112688124,-1.0904989,0.7665491,2.1338823,1.0866941,0.8868459,-0.50269413,0.1426535,0.88109744,1.0800576,-2.4093454,-1.0357844,-1.4193479,-0.037291516,-2.262166,-0.40605265,-1.9910041,0.21510246,-1.3159289,-0.26409242,0.38653407,2.162605,0.5654862,-2.036153,-1.6137503,0.97071624,-0.87968063,-2.3222167,-0.23570341,-0.56948936,1.9599826,0.8942531,1.0059278,0.45019418,-1.4674501,1.9759239,1.4115752,1.1721666,-1.3489673,-1.5960655,1.1803966,0.88550586,-1.0316132,-0.8707183,-0.38759905,0.97871244,0.41065794,-0.3323194,-0.04680389,0.4772386,0.7545966,0.3281508,0.40532368,1.2568687,1.8642912,-0.8340333,1.1590819,-0.14547409,1.530628,-0.54479045,-1.5327073,0.3767835,0.17464374,1.5650738,0.830644,-1.0514383,-1.3601912,0.33296403
LYO03,0.056996655,1.1161885,-0.4535086,0.67101234,2.3073444,0.40142167,-0.2824334,-2.4415653,-0.52620363,-0.16627893,-0.09943285,1.302084,2.1296728,0.55895495,0.6588241,0.7622102,0.14047357,-0.5361514,1.2776071,-0.4019971,0.8485092,-0.12828924,-0.96972257,0.31905812,1.5822866,-0.23228663,1.4829634,1.0274984,-2.079364,-0.74859214,0.58131844,-0.6550006,0.28325194,-0.67348963,1.0048143,0.83640057,1.4751887,1.0553043,0.49048102,-0.70535296,0.12661688,-1.02096,-3.0627987,-1.3862514,-1.1509386,0.22734942,-0.2664986,-1.7029347,-0.8720899,-0.42890257,-0.76554763,-0.54806745,2.0702658,1.362091,0.13624403,-1.986181,-3.1556563,0.6459697,0.56111604,-1.3187691,0.367155,-0.75304955,-0.03766762,0.8449454,1.0362812,-0.29098743,-0.9967756,0.0014385652,-0.048243877,0.4656831,0.21921778,-2.0157187,0.022939991,-0.7597253,-0.3371798,-0.50697285,-0.2295509,1.0103235,-0.2628983,0.021616563,1.0677245,0.5229624,0.8872252,-0.35767508,0.429943,0.8023061,0.14266025,-0.24661393,0.8479429,-0.9012576,1.9652296,0.50806785,-1.4060758,0.22991796,-0.24817947,0.023277588,0.94208235,-0.54365957,0.05493247,-0.25115788
POF04,-0.55291396,-0.069290236,0.2156641,0.38269407,1.7321489,1.6461535,0.7758736,-0.53958035,-0.42855206,-0.77802366,-0.5002467,0.59786475,0.77512574,-0.10130761,0.9382582,-0.67636824,0.27360654,-0.48941824,1.7956578,-0.21084823,0.60790336,0.55082625,0.039047092,-0.03587185,2.1867752,-1.3174971,1.5339996,-0.015348016,0.120541915,-0.60725695,0.49442872,1.471768,-0.248978,-0.7870374,0.019509377,0.37403896,0.5501835,1.3097403,-0.27779588,-1.3007714,-0.13905263,-0.06876962,-3.594942,-0.741815,-0.5457516,0.8349667,-0.8511507,-0.25106144,-0.5597684,0.536759,-0.45186263,-0.51554936,1.3365027,1.0904598,-0.13242744,-2.5768454,-1.5353013,1.022103,1.6266816,-0.84152526,-0.26325718,-0.10313362,0.78908885,0.5522325,0.95131034,0.5463022,0.34034392,0.24508022,-1.1889247,0.6517549,-0.3139046,-2.292488,0.6800612,-0.40564638,-1.1293412,-0.25687194,1.3114669,1.1834834,0.70691806,0.37816015,0.1549328,1.5144665,0.33520868,0.519029,0.07634658,0.39405015,0.7548794,0.06405105,0.4238113,-0.3725937,1.6435757,-0.42075023,0.32503107,-1.5339723,0.4925048,0.42544848,1.0112488,0.318722,0.753362,0.66929835
BFC05,0.9723222,0.14509831,0.034697052,0.12749603,0.7379601,1.6914726,1.6175786,-1.2926646,0.056583107,-0.79952824,-0.52531594,0.20916063,0.7133023,-0.32576692,0.0831975,-0.26308444,-0.33734915,-0.53947014,0.7581983,-1.0659184,-0.43539172,1.0356389,-0.34491977,-0.46699932,1.659734,-1.4954396,1.3262001,0.64172536,-0.6642152,0.114931196,0.0062995707,0.767114,0.5447361,-0.214697,-0.5127279,0.5631988,-0.008238851,0.39732626,0.44419393,0.4080675,0.8700496,1.1753262,-2.0906906,-0.39504838,-0.56003,0.089801885,-0.9424135,-0.24194257,-0.52044594,0.5591326,-0.7356902,-0.4295615,0.9818512,0.52200186,0.54209924,-1.520099,-1.2505801,-0.3023751,-0.4388861,-1.3467396,-0.30228418,0.23690946,1.0379194,1.1477146,0.38139078,0.11217076,-0.14741068,1.5066441,0.4474089,1.4803196,-0.23829544,-0.87342,0.7915197,0.7885237,-0.9638779,-0.5599814,-0.6857453,0.8890698,0.8986326,-0.6174197,0.3719862,0.908872,-0.12886542,0.32233855,0.11496485,-0.17455654,-0.054429203,-0.54717964,-0.40105033,0.4761168,1.5874317,-0.30459318,0.18439466,-0.49231708,-0.61481804,1.4889492,0.86737806,-0.9219563,-0.63355255,0.560777
OCM05,-0.0045077577,-0.15028924,-0.046607863,-0.30362532,0.8569887,0.47025922,0.56308126,-0.8066585,-0.08957871,-0.3524491,-0.23336251,-0.12993339,0.31673783,-0.6476541,0.1589001,-1.135671,0.5538771,-0.6264831,1.879649,-1.5287045,1.1688049,0.66655475,-0.8050522,0.4781724,1.3442869,-0.47475302,1.1373004,0.09641523,-0.950007,-0.00054467254,0.9627076,0.1283791,0.16799219,-0.0057619973,0.27688995,0.7954867,1.0704011,1.6937321,0.54862696,-0.16015746,0.15534835,0.4946519,-1.2756058,-1.8062986,-0.5303535,0.52980465,-1.057741,-0.37303835,-0.19025418,0.52150315,0.43040067,-0.78529197,1.5212042,0.9065799,0.27936664,-2.5586271,-1.2056341,1.0071305,0.76057714,-0.70174086,-0.19892712,-0.3404084,-0.23919633,0.47808507,1.2668908,-0.3857442,0.42196718,1.1324053,0.28483945,1.8429887,-0.546222,-0.8232518,-0.28567925,-0.026409693,-0.14518213,0.11632912,0.019843012,0.8069415,0.7976994,-0.20632607,1.1472651,0.8006108,-0.49077073,0.11810901,0.41749796,0.13494267,1.6758107,0.5475724,1.0033548,-0.9565819,0.94367164,-0.06320309,-0.65203434,-1.261253,0.1005206,0.5944757,0.2774487,0.2651077,-0.28817403,-0.82875985
BOD11,1.3956802,-0.29173324,-0.25117147,0.20489095,0.22929895,0.48640826,0.13320091,-0.6629204,1.200382,-0.6676187,0.6121751,0.33069828,0.07135049,0.788868,-0.59327966,-0.6535316,-0.362356,-0.9988237,1.1445487,-1.4771665,0.99456173,-0.09309596,-0.42654583,-0.48728055,1.415756,-1.3155631,0.79439676,0.08082429,-0.23705591,0.23491244,0.47675413,-1.1026735,0.6603256,0.3087809,-1.1534632,0.67991,1.3348851,0.6186467,-0.14547858,-0.24387017,0.37538454,0.6801464,-2.0744276,-1.3119746,-0.46757588,0.3973666,-1.6275091,-0.8577664,-0.2760824,-2.0260851,-1.4217566,-0.47986346,1.3290712,1.0812987,0.31259322,-1.2004904,-1.5152617,1.504254,-0.0018707197,-0.91901594,-0.4413238,-0.7861211,-0.3404933,0.8958848,0.59963393,-0.6501824,0.3874993,-0.025900327,-0.016671447,1.5661354,-1.4685023,-1.9645188,0.26045004,1.2044737,-0.8091261,0.29596692,-0.18571454,-0.18215987,0.3771839,-0.2989057,0.39711115,1.6166518,0.8929045,-0.008318922,-0.20520529,1.9031595,1.428657,0.5033689,0.6427084,-0.4304559,2.4868317,0.024474384,-0.78519166,-0.7962987,0.5731989,0.7691869,0.29339424,-1.0698166,-1.0331345,-1.250631
CVL04,0.16907662,-0.39844555,-0.7170651,0.44500086,1.7982087,-0.17833032,0.49719492,-2.556019,-0.58544827,-0.63139665,-0.11728669,0.5452194,1.4102519,-0.41091335,1.0717914,0.6212667,-0.017530238,-1.2036358,0.3309215,-1.2950243,0.011117999,-0.07213192,-0.47564432,-0.3885109,1.5550671,-0.8272964,1.857659,0.8558116,-1.2688707,-0.871787,1.1421766,0.48681062,0.07724963,-0.74285394,0.5592415,1.3990752,-0.4273056,1.0194724,0.6750477,-0.79982597,0.4392131,-0.23079973,-3.7562346,-0.44903037,-0.8192046,0.19062105,-1.3196325,-1.3983369,-1.7208526,0.1922628,-1.4373558,-0.84163874,1.5515007,1.0034149,0.12142124,-3.419903,-1.5601503,-0.3696632,1.7065313,-1.236777,0.9310444,-1.1435676,1.0084475,1.7706993,1.7946196,-0.8352759,-0.123118214,0.32933238,-0.52990323,0.881683,-0.1372765,-2.4756336,0.18401279,-1.1407082,-1.0948025,0.22050901,-0.2345987,1.5035228,0.79248655,-0.68137676,-0.07578785,1.5123141,0.6529587,1.025609,1.113641,0.9817468,0.14180413,-0.49623597,0.32499254,-0.90050423,2.6184707,0.5054153,-1.627002,-1.2934829,0.61332184,1.0177352,0.043217447,-0.77207774,-0.58520573,0.45160687
PES09,0.56554145,0.5533966,0.11792993,-0.7959746,0.24284317,0.47616807,0.32357758,-1.1747549,0.28896204,0.55723333,-0.19010422,-0.12494519,0.88321024,-0.9636679,0.99913013,-1.0152177,0.29932207,-1.0385642,1.4328654,0.036496285,-0.5845964,0.89231306,-1.5031284,0.70013535,0.7552729,-0.6647269,1.1298337,0.6285345,-1.3031826,-0.6629433,-0.3028599,0.57124656,-0.53260356,-0.35076538,-0.04307296,0.95312726,0.97655606,-0.7216668,0.07053609,0.041908585,0.05972581,-1.3413998,-4.2777743,-1.6291988,-1.5360023,0.51193666,-2.0653594,-2.0296035,-1.3036704,0.14709678,-0.73012525,-1.2971543,0.46897712,0.9517499,-0.156244,-2.1798384,-1.9318818,0.59742826,0.95857346,-0.09990235,0.11854883,0.20765665,0.8000378,0.88734186,0.38408688,-0.77882975,0.76653665,0.6896121,-0.02018487,-0.24307181,-1.7545666,-1.06661,-0.1829535,-0.06549773,-0.93925315,-1.0847317,0.2920059,1.0729309,-0.9828713,0.25636858,-0.6017869,0.52488875,-0.07753336,0.74852735,0.7021727,0.24538176,0.152713,0.52174616,-0.345943,-0.07583091,1.8142707,0.47787255,-2.3977337,-0.13653459,0.6305001,1.8227087,-1.322285,-0.0498564,-0.34079096,0.51643604
BOD05,0.6417717,0.6427557,0.837995,0.68020064,0.5483626,1.6263697,1.0798032,-1.1177968,1.2194129,-0.06275471,0.99540585,-0.30120748,1.2057129,-0.82708573,0.3991627,-0.49811897,-0.7473489,-1.9948788,1.1823382,-0.82315725,-1.028206,-0.20949033,0.18389677,0.39312643,0.13254534,-1.4328884,0.59919214,-0.22541013,0.181959,-0.29930168,0.52715766,0.65510523,-0.07733886,0.4330511,0.30349633,1.4768392,-0.10187007,1.813272,0.52198756,-0.17634629,0.3683366,-0.9836693,-2.9447532,-0.19111094,-1.8158165,0.07388202,-1.3930475,-1.5735961,0.21172753,0.18177126,-1.3412097,1.1154939,1.3493328,2.2153187,1.3961343,-1.7214079,-1.078514,0.23847838,0.4495539,-0.15400012,-0.1504782,-2.1653588,0.894217,1.7401646,1.1497632,-0.5997688,0.06664315,-1.038868,1.5742342,1.5699883,-0.21051371,-2.246075,0.96269995,-0.4433953,-0.6470033,-0.48846588,0.07087178,-0.31551802,-1.140869,-0.75987715,1.160328,0.942663,0.6586098,-0.24779561,-0.48429,1.1445518,0.57659125,-0.80825853,0.44983777,0.24971157,0.9036924,0.31633922,-0.29321814,-1.1217853,-0.007801002,0.41933545,0.28955784,-0.6514393,-0.48722857,-0.034437537
OCM19,0.9541725,0.09907139,-0.71305555,-0.47078174,0.31231183,-0.19911443,1.5856291,-1.4170678,0.39204973,-0.51114786,-0.019111015,0.037664734,1.673102,0.08583415,0.1714301,0.23454589,0.16535565,0.068632424,1.0955981,-0.83610064,0.2642924,0.012518205,-0.76299435,1.0079645,1.4300768,-1.2561159,1.1060934,0.47293273,-1.6828153,-0.2126838,0.06922153,0.2030228,-0.6960625,-0.5488561,-0.055173762,0.5920221,0.84619325,0.64606404,-0.26008353,-0.64006454,0.16480666,0.51851106,-2.0746632,-1.1105932,-0.3636133,1.3417858,-2.1462822,-0.83507496,-1.7670356,-0.015393353,-1.0576998,-1.1058695,0.7830523,0.3003856,0.0035413282,-1.9872639,-1.2530464,0.7507724,0.4801589,-1.1515355,-0.28787988,0.588063,-0.5603454,-0.18112002,0.8110006,0.21541592,0.19960845,0.28591937,-0.07850151,0.9120951,-0.010013362,-1.4824501,-0.4255073,0.4008677,-0.39975387,0.19731465,-0.9086682,0.8231558,0.7766513,-0.5721228,0.9218188,0.6511623,0.16565436,0.14341608,1.066923,-0.60257477,0.3605163,-0.7044205,0.1507509,-0.58516157,1.5091769,0.20854977,-0.73316306,-0.6138329,-0.4665678,1.0570385,-0.21566303,0.0340793,-0.50334316,0.31622714
OCM14,1.3099453,0.010880709,-0.15898521,1.0146953,1.3118324,0.19665527,-0.033037685,-1.0941758,0.31957236,0.17911296,-0.04361851,0.61966515,1.531288,-0.5540893,0.25660318,-0.94559336,1.1385951,-0.056351837,0.28302744,-0.6466857,0.96589535,-0.41806868,-1.4780804,0.92582864,0.6636385,-0.41410136,1.7329255,-0.6066214,-1.3260773,0.058491945,0.74756896,-0.5873366,0.15287006,-1.286853,-0.28389052,0.40190706,0.76585186,1.6986129,1.3196976,0.46606344,0.5169041,-1.2475866,-2.0884633,-0.6484515,-1.1865485,1.0086482,-1.1351286,-0.62109375,-2.6638174,0.29474443,-0.17840189,-1.5907702,0.9007278,1.0230865,0.22469766,-1.806412,-2.1378813,0.719715,-0.35277757,-1.8379705,-0.23478426,0.113497265,0.46814275,-0.43051317,1.4442065,-0.13233647,-0.702804,0.87148696,-0.6035599,1.2964431,0.7706282,-0.16894524,-0.59738004,0.32718843,-0.5141518,0.4266183,-0.92478734,0.20654221,-0.093793765,-0.8913321,1.5058473,0.9674526,0.66522205,0.32949343,0.51848155,1.0162634,1.3306223,-0.7333592,1.2552807,-0.21034494,2.0012882,-0.5280068,-0.62532705,-0.5839634,-0.14310892,0.8421985,-0.4964694,-0.2465266,0.3281335,0.1116215
UPS11,0.35187453,0.81045866,0.6406696,-0.05015921,0.78858054,0.16731176,0.22984044,-1.4102817,-0.4810734,0.032026317,1.5343281,-1.278531,0.97063607,0.9045595,0.61391896,-0.39835894,0.61519593,-0.883651,1.4268906,0.31867892,-0.21749756,0.61089784,-1.2223679,0.45573154,0.81993926,-1.1930463,1.4162551,0.051406812,-1.151142,-0.13448507,0.3720604,0.7579125,-0.16029908,0.22539607,0.9049705,0.5162949,-0.7186692,1.7695483,0.702268,0.5027955,1.0661954,-0.115491964,-3.2670934,-1.2284604,-1.1986967,0.04412182,0.014405412,0.28606707,-1.538053,0.051347774,0.95767516,-0.7789697,-0.12269205,0.714699,-0.9432116,-2.801102,-1.514196,0.7775948,1.2544253,-1.0722498,0.5214118,0.1468805,-0.037276585,0.9640453,0.76916325,0.085283145,-0.29169783,0.66689223,0.23526762,1.4528985,-1.0646223,-2.216445,-0.39354613,0.015508991,-1.0004808,-0.48786756,-0.46189114,0.70693934,0.6503101,-0.72595376,0.49599102,1.6050649,-0.7772774,0.8103097,1.0980105,-0.90826106,0.39404303,0.44738707,0.7133501,-0.31431985,1.0294378,-0.69653004,-0.6087109,0.09928415,0.48428208,0.90347844,0.51780546,-1.0763485,0.33674937,-0.69108075
AMU10,-0.26061338,-0.17811388,-0.7334739,-0.78749955,1.3533438,-0.6226956,-0.25694212,-2.0561013,-0.7851675,-0.2266075,-1.030412,0.096760474,0.5744436,0.38906568,0.29014638,-0.058630582,0.06298597,-0.7602468,0.3075001,-0.7372453,0.3589135,-0.71479005,-0.8262631,-0.38921732,1.092331,-0.46978396,0.6530087,0.41194928,-0.95056385,-0.35915366,-0.06679465,0.46373415,0.40038422,-0.80290395,0.46428156,0.14738223,1.4053171,1.0440329,0.5305327,0.0029008558,1.3782911,-0.09830643,-1.4706969,-0.96074307,-1.3716043,0.3373051,-2.1467562,-0.6119495,-1.3783892,-0.26792264,0.199425,-0.03814979,0.47800696,1.6626626,0.7269372,-1.819888,-2.008749,0.7736638,0.7246639,-0.61102587,-0.045142967,-0.48935193,0.0048582624,0.79535335,0.35184428,-0.9591822,0.32485417,0.70322,-0.32992467,1.2809188,-0.7756579,-2.0867772,-0.52398527,0.08052757,-1.8708904,1.0473433,-0.549796,1.0750531,0.62176967,0.11867434,0.6184864,1.0793631,-0.54616004,0.9120493,-0.35044143,0.93675005,0.3310677,-0.53826296,-0.35925183,-0.04768453,1.5173774,-0.98282266,-1.3161641,-1.8068328,-0.008423765,1.0633732,-0.038985703,-0.9627955,0.15202142,-0.010712171
BFC08,0.26703018,0.18371546,0.12418174,-0.5329565,1.006464,0.6099018,-0.19854836,-0.6819294,0.74503726,-0.6254614,0.89972675,0.029079026,1.2603508,0.5290368,0.25886574,0.30039358,-0.109717116,-0.43724826,1.6223608,-0.23666154,0.01664169,0.009051946,-0.8495156,-0.3659042,0.04334297,-1.2014883,0.5712269,-0.6086946,-0.74907243,-0.2829974,-0.6006068,0.9393717,0.16929266,-0.2652059,-0.30022955,0.8707394,0.58707803,0.7884019,0.1906083,0.06709048,0.31035933,-0.0023790582,-2.9252334,-0.11859305,-0.56296206,-0.05960189,-1.3554186,-0.281489,-0.8773287,-0.40206602,-0.044489484,0.37925884,0.25993302,0.25819758,-0.30864468,-2.2446582,-0.4833042,0.7002227,0.0119164875,-1.4767356,-0.63625675,-0.26023993,0.5171429,1.4886436,0.9002595,-0.06997802,0.14598638,0.1762289,0.21319889,1.3623772,-1.1441563,-1.8122548,0.22716933,-0.27073112,-1.9409931,-0.3671436,0.47250664,0.15048327,0.3948008,-0.31155968,-0.26136726,1.7775583,0.7380418,0.14419323,-0.8241898,0.40225863,0.8128684,-0.3377301,0.33334196,0.29312286,0.6602822,1.1463072,0.07904572,0.14377396,-0.10683465,1.0103215,-0.76351136,-0.019277232,0.44315374,0.31925857
OCM12,-0.5921452,0.2452364,-0.077306345,0.42702204,1.4808812,-0.79976827,0.1653733,-1.3052078,0.30248535,0.6686366,-1.0495489,1.3296463,1.1866441,0.9534962,1.3587899,0.2910319,0.7328015,-0.8139295,1.2104722,0.18525392,0.030380137,0.6940515,-0.53833383,0.74417907,0.43857303,-0.43580648,0.6420702,0.5693596,-0.43607613,-0.3911474,0.98463595,1.4010454,-0.6130327,-0.44010797,-0.42586198,-0.22332825,0.76924014,0.8731568,-0.118339024,-0.79435724,0.26139748,0.5161017,-3.7013776,-0.81057966,-0.9486111,-0.0036302973,-2.3057866,-0.7095063,-0.52348596,-0.22871548,0.50234526,-1.4496154,1.5565401,0.090978906,0.4275262,-3.3279026,-1.519488,0.086960524,-0.17938383,-1.3417323,0.0015045303,-0.81353563,1.4867749,1.4818904,2.7124596,-0.6900419,-0.08373965,1.4378278,-0.48438197,2.290827,-0.5642832,-2.7109272,-0.12176745,-0.97721386,-2.3910837,-0.20910689,0.28633997,3.070314,1.3074853,1.5746946,-0.38798726,0.90401465,-0.5590292,0.08446916,0.6314455,0.354652,0.17311434,-0.1059674,0.0486379,-0.3849411,1.4317536,-0.4249596,-1.7901189,-1.5245725,1.8123109,1.9368157,-0.46601272,0.16557032,1.1866814,1.4467634
PES08,0.84914386,-0.8262282,0.30964285,0.76810235,0.7834758,0.087744884,0.79019964,-1.442916,-0.17228961,0.30017072,1.0620432,-0.106025726,0.8502312,0.19953871,0.47306427,-0.98016995,0.5689259,0.48021796,1.3352052,0.18558785,0.8646034,-0.32686672,-0.8997315,0.34729582,0.33961597,-1.1482505,2.2005186,0.11248655,-0.7264943,0.53495103,0.69217736,1.4077536,-0.80157435,-0.61211264,0.6908269,0.66974354,-0.056231197,0.020535529,-0.32390508,-1.5595865,0.54335487,-0.104766704,-3.3313408,-1.268378,-0.53387016,0.9891918,-0.7192877,-0.104513735,-0.37159264,-1.0739278,-0.66676563,-0.19632356,0.13923268,0.6941055,-0.47055224,-2.4335928,-1.235715,1.8179152,0.89973366,-0.82372016,-0.42841673,-0.63351524,-0.39343584,0.6262727,-0.41351077,-0.7613584,0.05115279,0.110465616,0.008245066,0.13692896,-1.5514916,-1.787166,-0.22160427,0.38758,-1.8868113,0.18914446,-0.24137776,0.029951297,-0.49145195,1.3963883,0.5688336,2.0495343,0.104946114,-0.12112957,0.16532753,0.07845683,0.78095376,-1.0818226,1.0607914,-0.716389,2.2177877,-0.38824937,-0.060954068,-0.77460283,-0.56039804,-0.1598207,0.30119208,-0.35450974,-0.35156667,-0.5003553
GRE14,0.8684408,-0.86338073,0.726535,-0.22660613,1.4213853,-0.057228036,0.29078594,-1.218384,-0.17174746,-0.467648,-0.12660344,-0.045520324,1.2799287,-0.57285,0.93674076,0.052893307,-0.0046798405,-0.63287807,2.4249396,-1.0658625,0.15830281,1.083683,-0.4840994,-0.23954466,0.87916887,-0.19640909,1.1538638,0.5124319,-1.624085,0.016367242,0.2931289,1.2544839,-0.3235134,-1.383146,0.07449922,0.79461825,0.9848471,0.69675606,0.17003253,-0.6571433,0.24865882,-0.13980018,-4.256871,-0.93030643,-1.4497312,0.2414748,-1.4567542,-0.20099708,-0.92373884,-0.1691194,-1.0254923,0.5451691,1.3998737,0.51055706,-0.13449533,-2.482845,-1.9833329,0.8595454,0.037504453,-0.08079027,-0.6676459,-1.7823491,1.0111917,0.9939531,0.5944439,-1.2889986,0.6713903,0.47016385,0.18835951,1.9229523,-1.1312798,-1.3648591,0.62007636,-0.09396855,-1.1034893,0.24097084,-0.0990072,2.3609583,0.08184921,-0.5955854,0.8378165,1.3816162,0.03179615,0.8800834,1.2256843,1.1500143,0.4976505,0.015583827,1.01567,-0.5855725,1.8020798,-0.18043339,-0.7922738,-1.0266267,0.6885029,1.0139545,0.34778062,-0.017301414,-1.1192914,0.19051279
LRE04,0.3233543,-0.79010904,-0.016691132,-0.111569695,0.4502391,0.70981634,0.6336608,-2.6485622,-0.30192178,-1.0767443,-0.65961,0.13502298,1.0497696,-0.29448035,-0.41926202,-0.80370885,0.48909733,-0.41560033,1.2698523,-0.71646863,0.52633137,0.7992603,-0.6418147,0.26844034,1.6499897,-0.68222046,1.0240048,0.9011435,-1.5448483,0.4835093,0.36502922,0.3207895,0.4255365,0.2789029,0.49831793,-0.256587,0.46792728,0.7576067,0.6898143,-0.67258966,0.32461005,0.09174705,-3.1209962,-0.26767078,-0.109307334,0.020844007,-1.3524575,-1.2763226,-0.9541694,-0.6647122,0.32626566,-0.40789962,1.3935044,1.2985104,0.046539754,-1.536899,-1.4966304,0.33599484,1.2943801,-0.48533612,0.33536595,-0.25743523,0.2270942,0.4937509,1.5006992,0.086953916,1.2897575,1.4769986,-0.22169553,1.2994819,0.08505605,-1.4805782,0.9536862,0.8290621,-0.011984665,0.022334656,-0.23010722,-0.27090564,0.999259,-0.9634188,-0.12438828,0.9100195,0.7051767,0.43682474,-0.74617577,0.21225242,0.5837053,-0.33022726,0.3624892,-0.26869056,2.5164497,0.29542166,-0.4206898,-1.0686568,0.24236485,0.10028596,0.5170401,-1.052211,-0.4807702,-0.59805405
CFE09,0.31812534,1.3417693,-0.6979902,0.31859997,0.763846,0.0156077985,0.9499394,-1.1514806,-1.5827175,-0.1595891,0.605204,1.2774423,1.2838919,-0.05237085,-0.0015819963,1.4931457,-0.6076764,-0.52031875,1.2326862,-0.22485016,0.29926148,-0.28603673,-0.09874265,0.32399562,0.087846585,-2.0579913,1.3361619,-0.041712105,0.14132199,-1.4557266,-0.49273542,0.5312405,0.7805278,0.22729295,1.8485833,0.09346579,0.34031668,1.8519679,0.6176523,-0.0192052,0.62869865,-0.3038339,-2.516336,-0.68489814,-0.7938879,-0.15180893,-0.8053669,-2.079306,-0.63772,-0.34455925,-0.08112594,-0.2426937,1.4491698,1.6816975,1.442215,-1.890368,-1.733141,1.1860547,1.2625449,-1.434769,0.89416814,-0.8031099,0.5805165,1.535021,2.1835043,-1.1102697,-0.378194,-0.28191024,0.5293895,1.6412702,0.24637167,-1.150181,0.45193538,-0.6741706,-0.8066206,-0.055181973,0.9956786,-0.7301463,-0.16676188,-2.050988,-0.7472971,2.1270697,0.044696223,-0.36769807,-0.6112256,0.11122107,0.35249147,0.504095,0.7737426,1.4658744,0.90466577,0.115585,-1.4017967,-1.0861034,0.34094575,1.1164525,0.33055955,0.1054733,0.6845017,0.804057
NOR06,1.2869116,0.8029153,0.18665686,-0.6741605,0.42621917,0.64880514,1.0511276,-2.4572785,-0.017405616,0.8460184,0.18216024,-0.10845159,0.20495723,-1.2815589,0.20505999,0.52820456,-1.1843622,-0.22309779,-0.92738205,-0.74800533,-0.3470903,-0.5646442,-0.7211996,0.59877414,0.6172395,-0.8048032,1.534313,-0.90747315,-1.3629811,-0.7658069,0.08305254,0.83567953,0.20554931,-0.6272279,-0.7204094,1.3772817,1.5445131,-0.16275728,0.41323116,-0.7001154,0.32097384,0.3790682,-3.9677536,-1.4061695,0.18851127,0.9046931,-1.329735,-0.16083983,-1.4622598,-0.00078161433,-1.6939379,-1.5816219,0.15360284,0.01815483,-0.7081554,-2.692478,-0.7847609,1.3413568,-0.73487604,-0.7251089,0.5026631,-1.4650527,0.748835,0.7975929,0.28655645,-0.19068505,2.0870466,1.252294,-0.20555729,1.3065851,-0.5917346,-2.3412104,0.08366218,0.78654355,-1.4746069,0.50495356,-0.044145,-0.416341,-0.21867156,-0.64700943,2.0530956,0.7987588,-0.45400295,0.49066913,-1.5110372,0.8984171,0.80803597,0.60441893,0.27431607,1.2373258,2.0831676,0.3345075,-0.71089196,-1.2760751,0.47030526,0.38008654,-0.06321544,-2.0105822,-0.08289419,0.31689015
BOD13,0.60394955,-1.1463778,0.5590999,-0.41615945,0.44392586,0.114105955,0.80480164,-0.6671072,-0.3521256,0.50011533,0.37554124,0.80604744,0.46721315,0.036743674,1.9623904,-0.4013377,0.7294068,0.23744042,1.9285402,-0.26313227,0.02951486,-0.05115762,-1.079609,-0.13349679,0.61306447,-0.008933851,0.86687714,0.7338156,-0.8122033,-0.39070195,0.39490238,1.5473973,0.20300283,-1.0066844,-1.4082373,0.63053757,0.54229254,1.5004108,-0.29621664,-0.59853584,-0.395421,-1.308168,-3.8405488,-0.64249206,-1.6139045,0.15630355,-0.95278585,-0.7702415,-1.6164821,1.6067955,0.14050667,-0.7678086,1.1560018,0.82286453,0.32740533,-2.5953147,-1.2095666,1.303615,-1.335151,-1.8846867,0.82626987,-0.96940637,0.20889324,1.1534084,1.5144899,-0.25159606,0.5488295,0.34817463,0.6297788,1.8360285,-0.40794626,-1.1967357,-0.0903907,-0.72453284,-0.86580926,1.6777029,-0.004139263,1.6779059,0.4425735,-0.31738672,0.4980416,1.7320137,1.0184288,-0.17190076,-0.07065059,0.028644992,0.6632407,0.6161907,1.3539789,-0.22701345,2.1271617,0.41876718,-0.45374024,-1.8974167,1.1234261,1.659684,-0.29733875,0.30899858,-0.27260244,0.08949462
PES05,0.029519357,0.26158085,-1.5023595,-1.2449552,1.2363595,0.4766596,0.42333674,-0.33476552,-0.64043796,0.22443695,1.6860946,0.18501972,1.4431659,-0.6730413,0.28085583,-0.47752413,0.27707678,-0.89850116,0.93245167,0.5854676,0.50019324,-0.0629014,-1.4401237,0.4829855,0.22115225,-2.0387952,0.82641053,0.48420122,-1.1319903,-0.6359443,0.75113523,0.1472408,-0.40134275,0.032603562,0.25400892,0.91484267,0.52684784,0.9085855,-0.19020703,-0.5013422,0.6474733,-1.7265899,-3.7030103,-1.2794515,-0.25964296,-0.14340712,-0.9937091,-0.9397195,-1.9140385,-0.7464239,0.5528988,-0.5916016,-0.35933116,1.0563514,-0.38804096,-1.9901319,-1.3076714,1.9854374,1.6778767,-0.99313,0.302462,-0.9306944,-0.6298031,1.0519493,0.73889476,-0.66338265,-0.3265772,-0.6904633,-0.32972735,1.3565562,-0.86653394,-1.9589093,-0.33798024,-0.87753,-0.93416494,-0.08302265,0.47027993,1.4100462,0.17637502,-0.022488043,-0.08665982,1.0675483,0.38867584,0.21189994,-0.11197537,0.047651667,1.1659622,0.7346695,1.0349345,-0.3195851,1.0259455,0.53667116,-0.25404856,0.15820178,1.5178354,-0.21279702,0.79306483,0.10559677,-0.10827598,-0.14692734
BRE11,-0.060701523,0.738552,-0.36861444,-1.2396445,0.84793466,0.118881546,0.80881214,-1.8947024,-0.021733647,0.49387032,0.89054793,-1.4352787,0.64528394,0.13909385,0.5582449,0.46073228,0.37439513,-0.9127556,0.4538829,-0.50337726,0.99573123,0.58521473,-0.9332714,0.5620192,1.3687193,-0.93261343,2.0295904,-0.2577667,-1.5981071,-0.69405633,0.2916878,0.6593292,-0.54331917,-0.9928427,-0.99376947,1.2544972,1.7046838,1.8397889,0.7778588,-0.20255007,-0.34011233,1.1242361,-3.2854714,-2.299928,-0.77703875,0.651454,-1.3099608,-1.0582784,-1.6225343,0.2502183,0.04997227,-1.1969084,0.23000643,0.8657634,-1.8879503,-2.3873,-1.3579296,1.6405697,0.73714155,-1.2551246,-0.07550318,-0.4490725,-0.23590828,1.2289456,1.228837,-0.99583423,-1.457937,1.0265028,-0.05725385,0.9818845,-1.7876058,-2.0146754,-0.8157187,0.014623953,-0.57356477,-0.29055014,-0.5166528,1.5975331,0.95668733,-0.7046888,0.22818486,1.3662502,-0.4939931,0.47997898,0.93521494,0.7129154,-0.32500464,1.1607175,0.09826834,-0.63054127,1.9493445,-0.17943856,0.019722003,-0.3730874,-0.2618447,0.7142341,-0.4525832,-0.30802295,0.54794735,-0.070089646
AMU11,-0.17537716,0.42381352,-0.74546057,-0.3969342,1.7125446,-0.2093966,0.4364161,-1.2831196,-1.7044265,-0.6258292,0.40182793,0.106770635,2.3176785,0.5718305,0.55968124,0.39991546,-0.15522803,-1.3462131,1.6957898,-0.62272716,0.75010026,0.94093364,-1.2624087,0.21815905,0.58815104,-1.3056518,0.6600655,0.6649267,-0.5422003,-0.35064313,0.18276149,0.17230614,0.41682643,0.061085533,1.12787,0.1787081,-0.22402556,1.3337566,0.32190588,-0.6473677,0.2966311,-0.27951893,-2.3780148,-1.1215613,-1.4781156,-0.82301223,-0.72898537,-1.4811842,-1.2079797,-0.57711285,0.32618538,0.061192892,0.5297614,1.553964,1.2587434,-2.1730192,-1.2284594,1.1512887,1.5831162,-1.662033,-0.80729085,-0.66192436,0.12671591,1.2376302,1.9412084,-0.20200899,-1.5776176,0.8229084,-0.054814976,1.0660089,-0.42677432,-0.87034607,0.5779021,-1.4884531,-0.28554434,-0.4643121,-0.7943162,0.9726981,1.2140317,-0.06779742,-0.11080129,1.0180286,0.24985558,-0.2799004,-0.17405806,-0.06601678,1.4138831,0.77101964,-0.054500166,-0.16828683,0.015634462,0.30355546,-0.9140048,-0.375323,0.014085844,1.0720472,0.62088615,0.03907231,-0.3102402,0.7908998
CFE02,0.8458079,0.44815034,0.91661495,1.2679353,0.7471788,0.23848177,0.9076809,-0.99791783,0.35009652,-0.19152774,-0.5683929,0.022451276,-0.18237682,1.018484,0.13655454,0.3413125,-0.3551163,-1.2057297,2.141418,-1.5053103,0.36190265,-0.03664007,-0.871264,0.39017382,1.558965,-0.39586315,0.97423786,0.30823684,-1.7618991,-1.1365556,-0.07532136,0.971593,-0.1300664,-0.4667066,-0.5716998,-0.01382534,2.354987,0.67596304,-0.41106695,-0.32306734,0.33290198,0.2704356,-3.0735285,-0.3322063,-0.40355667,1.0515845,-2.3663926,-1.5373595,-0.9254786,-0.06273512,-0.39093405,-0.97659004,1.5706474,0.90920687,-0.3855759,-1.8226168,-1.8306025,-0.72874993,0.63093865,-0.9642578,-0.16283853,-1.0490177,0.7501263,0.36731035,0.29486024,-0.4228712,-0.3955454,0.44636554,0.80277,0.9289285,-0.06048693,-2.0746737,-0.34840947,0.19377032,0.028869895,1.0169916,-0.54901516,1.4639435,0.3292835,-0.8854401,0.6753296,1.4267786,0.95456433,-0.108237505,-0.027955333,0.8186897,1.3858557,1.0072345,0.62108225,-0.3061209,2.884845,0.51137584,-1.3231212,-0.86993366,0.5727026,1.22099,0.022300364,-1.2147677,-0.6265223,1.0415009
AMU02,0.2131271,-0.3655102,0.030955762,0.6337498,2.769619,-0.014296959,0.49048638,-2.1822865,-1.0084087,0.51000625,-0.21587582,1.5723928,1.8403513,-0.69345695,1.0313874,0.5508033,-0.011101997,-0.053799506,1.5239506,-0.78217596,0.36844486,-0.1533949,-1.4258741,0.11677577,1.2187645,-1.7413895,1.3031334,0.6802059,-1.1005758,0.050684426,0.5758675,1.0020298,-0.37811366,0.021847406,2.0831614,0.87435174,1.2445399,2.2607548,0.4008179,-1.141953,0.8074477,-0.7376369,-3.7123568,-1.2248548,-0.45085874,0.018245095,-1.0304272,-1.2485424,-1.1316564,0.1712011,0.0928956,-0.82934964,1.3689853,1.0810444,0.23403907,-2.9117687,-1.6938776,0.1366996,1.1680812,-1.3148023,0.36399382,-1.4711757,0.7521375,0.5656232,2.4989815,0.8387686,-0.5436949,0.4597956,-0.4814175,1.9168013,0.53072256,-0.9671208,0.34138712,-0.4073453,-0.97268564,0.7010058,-0.09722156,1.7759132,1.129344,-0.52456164,0.9811016,2.3184662,0.2861122,1.0931236,1.4439257,1.0233324,1.4677455,-0.25313294,2.2651885,-0.8002988,1.3668627,0.4168583,-1.3964773,-0.31576726,0.61194515,0.52036077,0.12520605,0.4036318,-0.2349595,0.42597914
LRE05,0.7009739,-0.013089312,-0.016163966,-0.6391348,0.9075289,0.41103566,0.82028097,-1.3924196,-0.40713128,-0.74732286,-0.042985074,0.46383545,-0.09889761,-0.4735987,1.0140513,-0.72957826,-0.08967032,-0.065970555,0.49430817,-0.9688487,1.452974,0.7627753,-1.0666269,0.35488385,-0.61945367,-1.3615266,1.9373496,0.22787173,0.15259464,-0.78577954,0.74264354,1.1437205,-0.80817896,-0.54848397,0.74574363,0.9414022,0.6117827,1.0421666,-0.5408884,-0.8459437,0.29980227,0.4503747,-2.7692585,-0.9650791,-0.12373398,0.12709971,-1.3545058,0.146146,-0.98684245,1.796926,-0.08735777,-1.7541331,0.6242563,1.1585398,-0.24539323,-2.6844072,-1.51328,0.9107341,-1.0713581,-1.4107058,-0.67357343,-0.616266,1.129524,1.3140876,1.7266507,0.075028434,-0.35088697,0.45606244,-0.44041654,1.4925402,-0.25807658,-1.2588985,-0.3055992,-0.83360004,-1.3955729,-0.32405043,-0.07685448,1.1391683,-0.40727562,0.34651977,0.712236,1.0874414,0.17578931,0.5741961,0.7836075,0.0716136,0.07738629,-0.6507232,0.2019712,-1.8791472,1.36238,-0.628447,-0.45684525,-2.064228,0.92474765,0.94420815,-0.4827146,0.11137951,0.59717,-0.79974824
ANT02,-0.27677253,-0.23484474,0.15692109,-0.11113396,1.2193133,1.021508,1.254827,-1.0254241,-0.29453284,0.05674901,-0.4256482,-0.1874628,1.4601308,1.2874373,0.6125945,0.0011557668,0.5804512,-0.45391637,0.9649562,0.12470817,0.12068704,0.951272,0.116083145,0.24680711,1.0781145,-1.2492481,0.9920962,0.8888696,-0.42186743,-0.72501355,0.7237947,1.1364651,-0.4462364,0.10073363,0.47478688,0.4337882,2.4297702,1.0352074,0.29590976,-1.3748175,-0.39462382,0.10554017,-2.8448646,-1.0539176,-0.7207337,-0.49886772,-0.20897458,-0.9443354,-1.4348261,-0.10440234,-0.47677836,-0.678087,0.7032303,1.7620679,0.18040594,-1.8558189,-0.9772744,0.78506786,1.0363655,-1.4739664,0.59785116,-1.0103161,0.3056698,0.73701453,-0.13989967,-0.10532459,-1.099871,0.4735279,-0.25096968,0.51224905,-0.3212772,-1.5166572,0.4558608,-0.25057176,-0.050466184,-0.15616408,0.2556885,0.7507684,1.0969383,0.37377876,-0.53403944,2.1677592,-0.009836516,-0.0014665159,0.01018002,-0.6741008,1.0666819,-0.5659487,-0.0069044386,-0.36993635,2.6753712,0.37171954,-0.4881348,-1.0349168,0.43702343,-0.25015214,1.1692668,0.4468492,0.2763154,0.77983284
LDV03,0.53590685,-0.10194556,-0.35979533,-0.33914575,1.411698,-0.5649046,0.36278313,-1.4154361,0.8527119,-0.89184654,0.55085033,0.6441831,0.67130315,-0.3051936,0.34358367,-0.98768646,0.41109398,0.40827528,1.2603093,-0.8261196,0.8317759,-0.29530936,-1.5356432,0.92488617,0.052933935,-0.95054615,0.5429821,0.14743774,-1.9668913,0.1763278,1.2852869,-0.7313047,-0.035236996,-0.013628285,-0.6892546,0.9991387,0.60678744,1.0244731,0.41005662,-0.13809082,0.6043609,-0.8330031,-2.1654775,-0.55759263,-0.119126454,1.0995752,-0.62970775,-1.3281312,-1.8631616,-0.83906907,-0.77933896,-1.5708224,1.4494516,1.651605,-0.068983994,-1.6032034,-2.58187,1.4258137,-0.4768945,-1.7633967,0.33042017,-0.40020403,1.0685667,0.40771323,0.5970608,0.032454938,0.5397204,0.31697387,-0.30951062,2.2072935,0.079919174,-0.898672,-0.22432905,0.0838986,-0.42264095,1.1141084,-1.207853,0.5336496,-0.14118303,-0.86767346,0.8623181,1.0775113,1.0392867,0.27904227,-0.1856203,0.75751245,0.7949209,0.93529904,0.655801,-0.8520368,1.762556,0.18260542,-1.4878111,-0.8242942,0.750851,1.4384917,0.171111,-0.9369159,0.2917012,0.38156995
GRE06,-0.49657425,0.3841755,-0.2068858,0.11821209,1.1371933,-0.26235047,0.56977016,-1.3094629,-0.6086622,-0.89139163,1.420834,-0.7620905,1.8650001,1.0851778,1.3196133,-0.097010314,0.19171754,-0.23558573,1.4783838,-0.36217362,1.0568179,0.6892457,-1.4992535,0.5076146,0.9098911,-1.5663242,1.1141416,0.1405927,-0.87823516,0.051965732,0.5184683,1.0720673,-0.5645454,0.21997793,1.0401175,0.48817953,-0.45964262,1.1559716,-0.03898113,0.46722326,0.70877033,-0.31527904,-3.2869303,-0.695769,-1.0795817,-0.6652142,-0.952818,0.25400928,-1.8896426,0.5599789,-0.3598318,-1.4023176,0.9692222,0.5422052,-0.56211776,-2.242853,-1.0909988,0.13252863,0.92512363,-2.2181191,0.3014631,-0.36806676,0.6486538,1.5895047,2.8745813,0.12447513,-0.1919923,1.2332627,-0.1812352,1.6819777,-1.0140443,-1.5409541,0.50405055,0.4029652,-0.8932207,-0.90724045,-0.103212,1.5793887,0.66587895,-0.576296,1.1188239,1.7367345,0.0074757044,1.3240128,1.6470783,0.41061684,0.6370128,-0.4944704,1.1285305,-0.65435946,1.2926118,0.38513106,-1.4056566,-1.0645653,0.21577102,0.9849618,0.59187067,-0.6337951,-0.2090987,-0.796211
LYO09,0.51750225,-0.026360812,-0.17937164,0.26262668,1.1412352,-0.8560885,0.54970264,-0.85907435,-0.302268,-0.48895693,-0.25276756,0.44338754,1.2525938,0.34275487,0.301568,-0.54152757,-0.43256328,0.25153276,-0.09286514,-0.40485585,0.08903215,0.95086753,-1.2182735,-0.2767813,0.59696645,-1.2393036,0.7914933,0.28937402,-1.2638502,-0.27324808,0.24032785,1.004823,-0.8551881,-0.19927515,0.89223474,-0.25981492,1.081201,0.46018723,0.759872,-0.19851384,0.4505455,-0.34181046,-2.1295097,-0.79669976,-0.5325248,0.6657663,-0.8209845,-1.0440241,-1.2239019,-1.1802529,0.7845625,0.44075632,0.5674525,0.3472524,0.799017,-1.6828485,-1.5022861,0.9194555,0.12665837,0.0057776878,-1.2111509,-1.6917363,0.07842167,0.8459119,1.4394007,-0.4795791,0.5068612,1.2511109,-0.23826177,2.4281693,-1.2384102,-0.6235177,0.7215087,-0.04043017,-1.1933683,-0.0315246,0.0076097953,0.4834561,-0.16678606,-0.7902287,0.2701851,0.93181294,0.41217658,0.72478676,0.39687982,-0.7794225,0.615237,-0.38078806,0.7470254,0.15645702,1.7265544,-0.40349185,-1.2245172,-0.025226358,0.53612137,0.31219792,0.9148293,-0.5103004,-0.52298456,-0.06398775
LOR06,-0.128951,1.0857782,0.9385049,-0.034979735,0.8800298,0.012572334,0.045645256,-0.46798018,-0.8375171,-0.3263375,0.30653164,1.1788013,1.1182536,-0.4017418,1.6317998,0.016069883,0.49189422,0.046441346,0.32954967,-0.5923315,-0.062327262,-0.255861,-1.4689256,-0.11529212,0.20658705,-0.1993219,2.050275,0.62601894,-0.060666338,-1.206225,0.6432106,0.14406139,0.08750495,0.16130182,0.3095838,0.4751676,0.12483035,0.7139342,0.33281326,-0.27173516,-0.020823812,-1.4112504,-2.2090855,-0.51108,-0.7726639,-0.6373592,-1.5329212,-1.046111,-1.2574673,0.41510913,-1.3002788,-1.1896067,1.1168454,1.5106492,0.5447873,-2.296154,-1.9557892,0.6646112,0.14380942,-1.5357023,-0.040551823,-0.550201,1.0631033,0.34727687,1.8132873,-0.20004067,-0.65674436,-0.24053732,-0.851811,0.2912548,-0.14126652,-1.6634125,0.5710783,0.14983109,-0.3590854,0.3396669,0.008221886,0.81477135,0.07571391,0.13242899,0.27314264,0.4583375,-0.3413462,1.5493768,0.8205739,0.23496465,1.0755992,-1.1457021,0.08282019,-1.0565714,0.92174876,-0.24669614,-1.2640105,0.21420361,0.32618693,1.1357265,-0.27123672,0.4727545,0.6839181,-0.16148965
UPS01,0.9518185,-0.34991273,0.24331674,0.3432761,1.0140718,-0.64498717,1.0756899,-1.9896221,0.8986137,-0.6910901,-0.10201413,1.2664853,1.632983,-0.12154298,1.7192265,-0.30777374,0.00666975,0.2254858,0.5818099,-0.9443161,-0.03878933,-0.3206632,-1.6375258,-0.09547744,0.2643137,-0.56237406,1.2667445,0.69470406,-2.5375724,-1.2193313,1.1071702,0.51256543,-0.37361145,-0.5483048,-1.0762811,1.1341771,0.41367579,0.5688297,0.4017539,-0.68422675,-0.22476836,-0.42123222,-2.888534,-1.9694612,-1.5811014,0.38168558,-1.4915786,-1.5582428,-1.6864773,0.26994023,-1.2286507,-0.20650859,1.5945109,0.45373413,-0.17207788,-2.7929323,-1.9932425,0.6300042,0.7502536,-1.7495834,0.5456856,-1.1838435,0.893377,1.0480157,2.5414603,-0.60674137,0.12656075,0.40126354,-0.6330665,1.6643467,0.06443064,-1.6154498,0.82752806,-1.1383818,-0.3493352,0.29560006,-0.63095975,0.699921,0.981903,-0.64803535,0.8267333,1.3738436,0.4377278,1.038535,2.5263667,-0.9890927,0.9441125,0.19526255,1.0973961,0.070457816,2.2025127,0.45484033,-1.8651882,-0.38716638,0.5883326,0.65340143,0.0498923,-0.371153,-1.5123441,0.177402
BOD16,-0.40110847,-0.527395,0.37757578,-0.30268624,1.0097417,-0.18334743,-0.28101262,-1.531687,-0.8994651,-0.85489196,0.4950946,0.54024357,1.3873345,0.13724406,0.80447733,-0.08260353,1.429804,0.4071475,1.6747078,-0.7377074,0.38020286,0.38129342,-1.2346896,0.53218603,1.6047595,-1.0985413,1.9776816,-0.09574212,-1.5744907,0.11881182,0.77808815,0.29994026,-0.6340551,0.27255708,-0.65798044,1.8015777,1.2465942,1.6470315,0.4597292,-0.3000193,1.1223505,0.38836628,-3.4993074,-1.0753832,-1.1469959,0.72858036,-1.7480944,-0.88588744,-2.482458,0.34843454,-0.5795256,-1.9695034,2.1792114,1.8314164,0.6111231,-2.288737,-2.0856805,0.7656887,0.5251387,-0.6093886,0.06699608,-0.30394116,0.30501607,1.42815,1.707231,-0.057437018,0.047006804,1.0475987,-0.048963107,1.5598801,-0.16904089,-1.7687256,0.27023646,0.9214417,0.18920834,0.63317275,-0.6977082,0.9598938,1.0235162,-1.168431,0.7809857,1.9110909,0.53512865,0.8141763,0.30643567,0.4527409,1.5590396,-0.64072275,1.1216953,0.16141282,1.7272884,0.12317852,-1.4517784,-0.67399156,-0.1472919,1.0468363,0.044136673,-0.2894283,-0.3026445,-1.0098096
BFC02,-0.01845566,0.46699744,-0.8702465,-0.337285,1.2699176,0.6930067,0.15808411,-0.8033389,-0.3494691,-0.0047819084,0.404913,0.036633376,0.99793386,0.497407,0.56642437,-0.881979,0.49552402,-0.68303424,1.2998042,-0.7294544,0.20666698,0.41834626,-0.5740653,-0.5438143,0.6943789,-2.3480556,1.5736219,0.4799035,-1.0264086,-0.7487448,0.49967754,0.86843723,0.28634894,0.004752323,1.0754515,1.9751754,0.555752,1.0359908,0.13612263,-1.0400916,0.24815005,0.08083404,-2.2791893,-0.118004225,-1.0789808,0.7942371,-2.2649121,-0.521923,-0.8503903,-0.8578605,0.37487784,-0.710215,0.41359714,0.9751201,0.6270765,-1.4449581,-1.5459478,0.8188448,0.4368688,-0.98609084,-0.3371093,-0.04561185,0.52175784,0.21848404,1.5299749,0.46356842,0.7147602,-0.33185968,0.1004025,1.5993217,-1.0044441,-1.7103322,-0.44999322,0.120776035,-1.3813958,0.17172107,-0.13128857,1.0790185,0.3905375,-1.5032152,0.45564827,1.6062379,0.7532985,-0.12136676,0.6712863,0.23880768,0.8967845,-1.0403816,0.2891609,0.07615548,1.6884261,-0.15690409,-0.8775656,-0.62487537,-0.26734516,0.7151279,0.09863359,0.028674634,-0.13447261,-0.006939292
UPS03,0.8821836,0.6098636,-0.6482073,0.77561563,-0.23382835,-1.3131278,0.041586526,-1.8284374,0.0139256045,-0.26639017,0.06992415,0.8325965,1.1380279,-0.6989638,-0.26451653,0.89477915,0.69677645,-0.18299656,1.1780757,-0.33032885,-0.09279815,1.0610905,-1.114095,0.6888884,1.6825821,-1.1491673,1.34161,0.19367221,0.5940362,-0.21650296,-0.5156817,1.6231552,-1.034248,0.41427502,-0.4553259,-0.09381477,1.5700029,1.657734,0.06358894,0.68650746,-0.032849535,0.046096582,-2.731267,-1.175436,-1.3748608,0.5002764,-1.4751903,-1.0063043,-1.3257159,-0.58199626,0.3463252,-0.0023057743,0.46120968,0.9685214,0.31758538,-2.4848347,-3.105609,0.2624936,-1.1369541,-2.176612,-0.54724723,-0.8776211,0.28699648,0.9054884,0.5103265,-0.65336865,0.3948877,1.1593273,0.93402886,2.293058,-1.2895873,-1.489204,0.34653375,0.14599134,-0.7528822,-1.0413764,-0.71602714,0.107873246,0.33968234,-1.2085513,0.31688422,2.0118713,-0.14525446,-0.36569354,0.6398645,-0.022601493,0.79653937,1.1041303,-0.26319075,0.232016,0.80934614,0.091122866,-0.98546267,-1.82477,0.56386775,2.4259667,-0.3661594,-0.2717246,-0.35771,1.7868936
GRE01,0.3754702,0.54591906,-0.11522253,-0.09154115,0.9321203,0.13935769,0.42520973,-1.88221,0.16025795,0.4498366,0.5375295,-0.5034367,0.4998203,-0.17765132,1.124108,-0.2708992,0.068989284,-0.8736927,0.7174727,-0.65262175,-0.6552273,1.3552083,-1.5626138,0.4999269,0.8974871,-1.0808297,1.4481888,0.14329642,-0.42643383,-1.3855524,0.085971944,0.68873173,0.3650413,-0.24655765,0.28804335,1.4768413,0.0029929557,1.662504,0.3830987,-0.18324032,0.46919224,0.6475289,-2.7167158,-1.3093737,0.43048236,0.1376957,-1.7852852,-0.5051959,-0.7637534,0.1194954,-0.2901535,-1.0080845,0.6544712,0.38902232,-0.48030493,-2.4597728,-1.0428883,1.5723503,0.23069726,-1.1900768,-0.0411169,-0.3581893,0.20163205,0.94582564,1.1687189,-0.21658121,0.43254218,0.54701126,0.4961476,1.6692723,-0.8614676,-1.8309556,0.58978736,-0.645236,-0.8163579,0.88314545,-1.0422845,0.98693717,0.41372842,-1.6030262,0.6441259,1.3854834,-0.05725811,0.6525656,-0.32757735,0.40847528,0.18438168,0.82318246,0.1143088,-0.36704874,1.6144165,-0.2882022,-1.369457,-0.0094227325,-0.7601137,1.5993938,0.19435056,0.010551625,-0.39051884,0.8154289
GRE04,-0.38073957,-0.048323654,-0.34075087,0.29606196,0.9718029,0.6985911,0.3186142,-0.9150954,-0.7179448,-0.08149428,0.77650946,-0.774009,1.6354733,-0.035245925,1.3673903,-1.0121498,-0.24028105,-0.30395928,0.3700534,-0.4511812,-0.07478099,0.6425576,-0.6881503,-0.2855179,0.22140154,-1.388081,1.5662372,-0.32880354,-0.7692603,-0.7222029,0.79079336,0.20366727,-0.021930367,-0.5351417,1.1758312,0.9645972,-0.09929314,1.8320804,0.31995723,0.26798755,0.9172568,-0.14853677,-2.7335665,-2.1245556,-1.2046078,-0.68173105,-0.96454287,-0.16846846,-1.3819176,-0.1674099,-0.30144206,-0.43730643,0.32984513,0.7656971,-0.8042608,-2.6569343,-0.92932445,1.2278402,1.8315948,-1.3746108,-0.30794084,-0.4808232,0.32016593,0.6126674,1.6709948,-0.30924517,-0.2942203,0.05811046,0.96986157,0.87009317,-0.71441627,-2.2888985,-0.7492006,-0.20649049,-1.9688414,0.88345474,0.21787156,0.7136408,1.1707869,-0.26878524,0.7866969,1.6569362,0.58629644,0.5949106,-0.052630216,-0.019339416,1.1028876,0.4637192,1.3046523,-0.29778475,1.9563905,0.50110954,-0.479437,-0.2386275,0.17583025,0.3030865,0.1581329,-0.35796985,0.7057975,-0.2613088
OCM07,0.23621824,0.30238464,0.5139797,0.42292023,1.1986817,-0.6425931,-0.09053497,-1.8915005,-0.02676919,0.31412768,0.97425973,-0.2570334,1.2586079,-0.4398538,-0.06913219,-0.8346872,0.59643763,-0.9275301,1.0230576,-0.76777864,0.7450785,0.18956846,-0.98979014,-0.33125964,1.2560292,-0.52792716,1.5521176,0.7660081,0.038586892,0.0981132,0.37186044,-0.34843627,-0.5435238,0.053769972,-0.2527419,1.0973624,1.5373918,0.35326242,0.8190429,-1.2771668,-0.42827678,0.025428658,-1.0943846,-0.08986271,-0.87066877,1.6050824,-0.27081284,-1.272442,-0.33419508,0.27029946,-0.31048897,-0.021848608,0.3202462,1.1833872,0.82062674,-1.2226697,-1.5011191,1.3163366,0.1372506,-0.9305497,-0.7030193,-0.5874308,-0.063478075,-0.035100378,0.16204748,-0.54127586,-0.29786646,-0.1414083,0.07382438,0.6296783,-0.35195524,-0.6068811,-0.5794151,-0.24439144,-0.9004709,-0.44442105,0.09554606,0.05193022,0.18641032,-0.34776917,0.7177856,1.6109418,0.4251062,-0.08336417,0.21067554,0.09479122,-0.106738664,-0.13661149,-0.33690998,-0.9465069,1.4622601,0.32320336,-0.50273,-0.16552709,0.06973013,0.76648843,-1.0391977,-0.50907826,0.83007663,0.33630964
LOR09,0.63525426,-0.0711828,0.34105027,0.37040558,1.0016747,-0.058065776,0.43747383,-0.34882137,-0.81699055,-0.08980955,-0.2299108,0.7787316,0.6171859,-1.3411458,0.5242281,-0.19214985,0.96667266,-0.6609198,1.3924378,-0.20971298,0.29542404,-0.13743767,-1.1876831,0.057548042,0.50838757,-0.7068507,0.66561496,-0.092097595,-1.9261065,-0.25507516,0.75181746,-1.0571516,-0.0419428,-0.54641634,-2.0876966,1.0276412,1.6774417,1.1984978,0.25028405,0.36794898,-0.03307519,-0.12453998,-1.3729627,-1.6492746,-1.3482758,0.26936215,-1.454732,-1.0990832,-1.2676483,1.3189034,0.012965597,-0.66429836,1.4397051,0.6286183,1.1283512,-1.8597426,-2.2515652,1.1623529,0.65728605,-1.267182,-0.053790577,-0.57532525,0.6844912,1.2726376,0.5010823,-0.8138249,-0.20257695,0.5051954,-0.20544036,1.3894538,-0.38531527,-0.7954245,-0.06398784,-0.3871226,-0.6762166,-0.034399416,0.32325044,1.3663284,0.96022594,0.50771904,0.3391699,0.68440586,-0.2442095,-0.011381617,0.31856292,0.07725529,1.2109921,1.0258532,0.38942617,-0.24002853,-0.12301367,0.64309925,-1.0803156,0.34373096,0.1740094,1.26328,-0.57955,0.29993927,0.013775561,0.2573112
LDV10,0.76995236,-0.025651071,0.5099794,0.28805614,0.91850674,0.17673714,0.59811276,-1.562968,-0.03669568,-1.4677968,0.45089754,0.29244012,2.1628282,-0.027639803,0.37138125,0.35131812,0.06960773,-0.6311016,0.587297,0.48362583,0.13160574,-0.28029045,-0.30048582,-0.12803592,0.026795559,-2.228808,1.3920952,1.1465496,-1.1178013,0.039895322,1.4269341,1.2504088,-0.21111876,-1.1817998,0.46150133,1.1146405,-0.7224371,1.3434802,-0.2544591,-0.6047363,0.13707216,-0.6356906,-3.4342692,-0.25631192,-0.07557266,-0.45465678,-0.343313,-0.09034421,-1.0906392,-0.5914276,-0.42758766,0.3795702,-0.08429926,0.7291498,0.118696555,-2.3720036,-1.1480746,1.2482687,0.64471555,-1.3595366,-0.36161795,-0.75182635,-0.09348538,1.6372714,0.66112316,-0.55040914,-0.85470253,1.395045,-1.0253938,1.4908831,0.05202334,-2.2751548,0.2550043,-1.2040436,-2.081406,0.10693974,-0.4386743,1.1572719,0.33430782,0.049826134,0.60275614,1.7588966,-0.4697482,0.36422622,0.89268833,-0.8566863,0.15089694,-0.010646913,0.6838765,-0.09955403,1.6760681,-0.11983922,-0.7406595,-0.7090322,1.1880713,0.29969636,0.26824903,-0.4321154,-0.19041328,1.6180416
PES03,0.5333083,0.17858331,-0.58334845,0.4416544,0.54032856,-0.1801613,0.073579885,-1.5357695,-0.1292546,-1.1061374,1.079898,0.15507495,0.8123175,-0.0650746,-0.10806556,0.13225521,-0.049601167,0.7593224,0.19786322,-0.4474998,1.7767795,0.5440172,-0.8841687,0.13096154,0.45770928,-1.6608202,1.0545868,0.6297399,-1.3745494,-0.65021455,0.7316492,-0.14770688,-0.8990811,-0.82260776,-0.012548072,1.8080641,0.85763353,1.4649168,0.2099108,-0.14211173,-0.11486732,-0.5085726,-2.2621136,-1.2652895,-0.5845661,-0.09127973,-1.1424788,-0.67376286,-1.3603824,1.0678009,-0.95046765,-1.2800738,0.683964,1.3780153,0.5289404,-1.5991343,-1.2284362,1.7480451,-0.63989794,-1.8188925,0.03671445,-0.60228366,0.8372582,2.1170328,2.1105201,-0.16929586,0.013553562,0.6808152,0.38022777,1.0101731,-0.6624753,-1.4827201,0.2338111,0.3690157,-1.3198777,-0.29435498,0.13935173,1.2717042,1.4840236,-0.66213,0.76166475,2.1921363,0.68149394,0.87885535,0.62096864,-1.5263815,0.0014629115,-0.22904916,-0.41679707,0.20346038,3.0080142,-0.55719125,-0.8315938,-1.0481979,0.7558299,0.3926024,0.5718062,-0.3735356,-0.4836157,-0.21914154
UPS05,2.2759833,0.45826566,0.4308065,-1.2519847,0.37656188,-0.47272584,1.2387837,-1.5366111,-0.10292528,0.3941428,0.29310027,-1.1314118,0.4159965,0.49957666,1.5660409,-0.8167208,-0.2474725,-2.0645792,0.7186109,-1.2411575,1.1912026,0.2294216,-0.92293173,0.53084797,-0.087611586,-1.4230205,1.0212741,0.20577548,-2.5381634,0.2841378,0.12838826,0.337794,-0.022038119,-0.30510053,-0.81380224,0.8369177,1.9564664,2.2790835,0.3580713,-0.47566742,-0.27821925,-0.044238877,-2.670437,-2.1888213,-0.7465004,0.38011608,-1.9130796,-1.3600055,-0.38477856,0.64016145,1.0284098,-0.8083012,0.31929624,1.038094,-0.9004266,-2.8575685,-1.1414214,2.3913772,2.2405598,-0.77529997,-0.6714315,-0.7142665,0.07965181,1.515481,2.1400228,-0.65633017,-1.2833928,-0.13575801,-0.24086674,1.7372655,-2.186616,-2.936191,-0.8625665,-0.40319282,-1.6639311,-0.5756481,-0.8169056,2.36783,0.65690076,0.17757335,-0.024069317,1.5323333,-0.09721088,-0.19577554,0.65946186,-0.03154847,-0.8277714,1.5954304,-0.11856234,-0.73159087,2.4358566,-0.5304572,0.7916022,-0.06833963,1.2839601,-0.04786546,0.62247634,-0.88906443,0.06796498,0.580035
NOR10,0.6045443,0.7504838,0.01714204,-0.36908534,1.3947787,0.43525484,0.66181546,-1.6383438,0.79898787,1.3387603,-0.5206123,0.194235,1.0594348,-0.83088726,0.3656911,-0.29734987,0.56830734,-2.0595589,1.065168,-0.90858334,0.17851578,0.63042223,-0.1526583,-0.6055716,-0.6848321,-2.096339,0.83427614,-0.1001194,-0.12581138,-0.353875,0.51170224,1.5202676,0.15759414,-0.49590006,0.26379684,0.14944668,1.702948,-0.1484325,0.43487358,-0.41629404,0.104894914,-0.100706704,-2.0716012,-1.5089753,-0.46389136,1.960272,-1.571645,-0.83063936,0.07368674,-1.7826813,-0.53114367,-0.3870841,0.79383475,0.7608292,-0.1094774,-3.1593375,-2.1186793,0.89348286,0.086949654,-0.76359516,-0.5089799,-0.5430998,1.2101363,0.037999354,-0.4198427,-0.111093245,1.6296645,1.0325966,0.72003585,1.5863978,-1.8634398,-1.52975,-0.84080255,-0.38133755,-1.5111889,0.5023893,0.81951255,1.3105587,-0.40695956,-1.0061051,1.0467917,1.1981015,-0.08637761,0.027380502,-0.39177793,0.47614792,0.62080044,0.3774814,0.73900944,-0.004439883,1.1819346,0.44145796,-1.7308711,-0.16679,-0.18708742,0.9357005,0.09603181,0.9337792,0.060372345,0.09975306
PES11,-0.032302007,0.008557108,0.5758765,-0.13657618,0.6923618,-0.06065651,-0.060992837,-0.77116215,0.111008026,-0.7396588,1.1748345,1.063785,1.656493,0.32783574,-0.05305812,0.19491376,0.0902372,0.68747085,1.634578,-0.4308972,1.236049,0.758422,-1.6221969,0.4196801,1.012495,-1.6468737,2.31493,0.45617515,-0.13476473,-0.12616833,-0.6919911,1.7366471,-0.27651486,-0.88296527,0.78992295,0.26587877,1.0149366,1.4565078,0.7235246,-1.0835671,0.63600576,-0.75635624,-3.5854516,0.23667006,0.10884409,-0.15750983,-0.10149974,0.49278972,-1.6657974,0.2505725,-0.28612113,0.38192487,0.92426986,0.24246271,1.0296804,-2.3854566,-1.4373544,0.7685806,1.0045061,-2.1292107,1.0288781,-0.5614093,-0.20316298,0.3797209,1.8247478,1.4831824,1.7193514,0.34042814,-1.0902685,1.6445996,-1.0696318,-1.5294234,1.3111778,-0.4640466,-0.9667053,-0.026345197,0.24644192,0.68843573,0.79150105,0.37968084,0.13996151,1.480681,0.25999668,0.40604094,0.18749392,-0.102342464,0.59675306,-0.55659384,1.1553938,-0.6566277,1.7126536,0.42973983,0.34026054,-0.5874642,0.48025113,0.51563656,0.20391214,0.47090253,0.75551474,-1.3964374
OCM15,-0.20636721,0.23108508,0.40677625,-0.72112453,1.6494061,-0.48281366,0.66446203,-0.89411914,-1.9083209,0.10125662,-0.39942488,1.1949234,0.80737346,-0.4802995,1.9146591,-1.0869466,-0.0772515,0.65589327,1.6843514,-0.097241856,0.3218748,-0.19341856,-1.0521683,-0.21116622,1.0799415,0.18481405,0.6832894,0.23049888,-0.5609283,0.018200776,-0.5149859,0.33490527,-0.9289091,0.8849201,0.7205189,0.54354525,1.5435284,0.8938726,0.20917197,-1.5495809,0.8525655,-0.87572366,-4.48435,-1.0045619,-1.2892644,0.7939517,-1.0480992,-0.5324803,-0.4937952,1.6191851,-0.24787514,-0.8407348,1.9406091,1.0175556,-0.25214025,-2.3682923,-2.0907612,0.8288171,1.0329319,-1.535341,-0.16328251,-0.5643509,-1.3474653,1.0702326,1.6383866,-0.94603735,0.7619618,-0.73325115,-0.080896676,0.12596981,-1.0878757,-1.532398,0.091927834,0.39199954,-0.96524566,0.29821932,0.32521567,1.0415212,0.02172308,0.7198756,-1.3037025,0.4009251,0.41479826,0.35740283,0.40711212,0.75230134,1.4238417,-0.88006705,0.88297856,-0.2603826,1.7397878,0.32384267,-1.197634,-1.6020192,0.18260147,0.5380619,-0.1378324,-0.41118118,-0.00078482635,0.52011645
AMU06,0.20232737,-1.0497458,0.81130785,0.9190385,1.2747896,-0.7824098,1.3881072,-1.3567473,-0.18766432,-1.6263055,1.6848422,0.5602052,0.8522319,0.06824961,0.49751598,-0.60630614,0.09809485,-0.16564666,1.884766,-1.5562228,-0.057867207,0.12510316,-0.36303878,0.3054203,0.57093275,-2.1669543,0.94435865,0.7234698,0.18269014,-0.5711401,0.56474316,0.33051342,-0.7504238,0.35889047,-0.08435034,0.58916664,1.7503157,0.4371854,0.32483017,-1.263297,0.4098517,-0.0053009097,-3.470573,-0.7148541,-1.1411812,0.4381093,-0.49099556,-1.5671777,-0.890477,-0.76978326,-0.7791108,0.13959333,0.15504509,0.41335148,0.484854,-2.103662,-1.1550504,0.38419953,1.231009,-0.46682423,-1.184669,-1.2877042,-0.2152307,0.37948072,1.1674732,-0.15718065,0.042984102,-0.28481,0.26609993,0.495887,-1.3909699,-1.5054182,1.1846212,-0.13072892,-1.5007343,-0.5404891,0.33180085,-0.0069867163,1.4685761,0.40810964,-0.16146083,2.2152927,0.10981057,0.7816084,2.048504,0.35991487,0.635801,-1.2264428,2.1422353,-0.13168943,1.3440338,1.2980556,-1.3953397,-0.7008598,0.03825504,1.0000064,0.18630849,-0.26849064,-0.9627981,0.4838305
LRE08,0.28085482,0.88175285,0.27098477,0.8058635,0.17860104,-0.14051227,0.49925834,-0.99255073,-1.3922226,-0.03680446,0.25626707,0.2982178,2.082431,-0.24150115,0.26357815,-1.2311296,0.5999159,-0.55893195,1.216781,-0.9723396,0.22497194,-1.1979235,-0.69984674,-0.29185554,0.95706373,-0.5034239,1.4337134,0.3872642,-1.1440306,-0.03722875,-0.41166255,-0.51326543,0.8818944,-0.119519666,-0.16386713,0.67470866,0.10449777,1.5540929,-0.06024679,0.057449628,0.8702392,-1.0147338,-1.8255506,1.1327612,-1.2266397,0.61362356,-1.7517189,-1.5262935,-1.3850644,0.47709924,-0.9650844,0.62570494,1.0187827,1.1632315,0.8279978,-1.4636022,-1.7649189,-0.107565336,0.7010556,-1.0503399,0.20277748,-0.15819077,-0.15355664,0.10115665,1.6306868,-0.6183998,-0.22595313,0.21148096,0.0072545665,0.97920907,-0.0339347,-1.3587121,0.10866422,0.6897948,-0.943232,0.033172835,-0.21254152,0.65568954,0.40754443,-0.7965517,1.1193184,1.0084519,-0.48882142,-0.8352333,-0.82604957,0.962565,1.1643032,-1.7531193,1.070661,0.16734721,0.5040226,-0.44462624,-1.5530314,-0.08712378,0.35202307,1.5953815,-0.56206656,-0.98110497,-0.2974129,-0.65365314
OCM01,-0.3806142,-0.10309225,-0.51799464,-0.35070667,2.0235472,0.14164673,0.22858532,-1.5939678,-0.3900681,-0.51629066,1.6450306,-0.6405648,1.2943164,0.26399428,0.75904685,-0.22062826,0.89907205,-0.4788085,1.2665688,-0.23494595,0.3197387,0.10061828,-1.4053437,1.0469004,0.95312506,-1.375557,1.007637,1.1630033,-0.4748521,0.31706503,0.27645847,0.36577216,-0.5009314,0.4253277,1.0115918,1.3434647,0.532145,0.13388176,-0.56924355,-0.6648332,0.7429408,-0.26200512,-3.7875,-0.6549415,-0.28151065,0.41831908,-1.2510026,0.10906715,-0.9940966,-1.1458237,0.14913829,-1.3201503,0.21777931,1.3778416,-0.7342052,-2.4307384,-1.359112,0.4167847,2.060274,-0.34991217,-0.06787256,-0.16639684,-0.15618014,1.1822748,0.6454718,-0.81039506,-0.24478994,-0.04602855,-0.12358469,1.1397436,-1.1238327,-2.5040848,-0.5977869,0.37425795,-2.2248962,-0.10831738,0.17807116,0.5632749,0.7774033,0.17366493,-0.25770018,0.971999,0.7220403,-0.011462255,-0.0053368933,0.37087056,0.72052217,-0.656013,1.1570026,-0.69996905,1.4552215,1.1933302,-0.95489913,-0.28395602,0.8433551,0.019348772,-0.39367884,-0.42592344,0.5617,0.1852228
GRE07,1.3388276,-0.17650978,0.35911834,-1.370246,-0.83202654,-0.5390053,1.4346303,0.0017635104,-0.46650228,0.78983516,0.48598343,0.59918696,0.9059094,-0.56409895,0.707986,0.07476235,-0.15366243,0.15720014,-0.0385634,0.18697645,-0.18440707,0.9591784,-1.7332287,0.75675595,-1.0788282,-2.3846018,1.2530807,-0.44447738,0.11317701,-1.2541499,0.6346918,1.0261065,0.5782602,-0.8521682,0.18486829,1.9544506,0.53847116,0.82841134,-1.0247772,1.1850322,0.3359814,0.11693716,-3.2014604,-1.5412155,-1.1284963,0.8037685,-0.008680915,0.86908615,-1.9942032,-0.7666496,0.10105952,-0.68701965,-0.2752882,1.1752969,-0.7891491,-2.4040992,-1.2740257,0.95791006,1.0189259,-2.355668,1.1967969,0.2730696,1.1023393,1.4718771,0.4199731,-1.512695,0.48416376,1.080806,-0.27860302,0.90111756,-1.2001666,-2.1189744,-0.432876,0.100420035,-0.76370937,0.7763242,-0.17603834,0.49306107,-0.30126595,-0.68733054,0.66923195,1.0924042,0.473527,0.23800041,0.34127182,0.668757,0.18311955,-0.19246216,1.4671388,0.11589028,1.0315682,0.19377439,0.05715858,-0.5898927,0.69178414,2.2325492,-0.10430013,0.2914588,0.04048999,1.2951084
PES07,0.6567233,-0.8240911,-0.06851496,0.30981234,0.7482089,-0.18581131,0.46755752,-0.30868345,0.21666734,-0.0068945372,0.5704757,0.69160837,1.815695,1.2342191,1.0340991,-0.49159545,0.24105309,-0.17535359,1.1961564,-0.22942856,1.3795323,0.3369108,-0.3408557,0.41041762,0.64188,-0.3571836,0.99854934,1.1647818,-0.8269625,-0.5787748,0.4583974,1.096203,-0.26990986,-0.12117104,0.09396965,0.12807493,0.82133436,0.6954444,-0.23247007,-0.3535505,0.5239515,0.18762942,-2.6191304,-1.5561509,-1.2515763,-0.74978155,-0.9498714,-0.4461591,-0.870626,0.4681377,-0.89281815,0.17432167,0.55260766,0.42413035,0.9069061,-1.666507,-0.8521186,-0.08400501,0.118601955,-0.914442,-0.13704863,-0.5279924,0.10399564,0.79315233,1.2549665,-1.14389,0.33546552,0.7490388,-0.87915057,0.7799493,0.36987215,-2.0583043,-0.85883,-0.5783042,0.082351446,0.3795818,0.9809579,1.3827862,1.3263818,0.116713464,0.15145338,1.1135098,-0.18491231,-0.031554867,0.8581189,-0.42608362,0.8721695,-0.36001956,0.8942458,0.601565,1.3593116,1.2463496,-0.3081226,-1.6111387,0.74104446,0.3951668,0.16657616,0.23450066,-0.49668595,0.47343352
LYO11,0.17517851,0.13165085,-0.40597385,-0.4181366,0.8240243,-0.64838994,1.0897908,-2.0700486,-0.18410882,0.44111642,0.5275694,-0.70085436,1.2222905,-0.72576326,1.1580365,-0.6684863,0.9586346,-1.0957443,1.8311766,-0.41952735,0.52357924,-0.06810813,-1.6263183,0.90869737,1.1596122,-1.3218939,1.6344519,0.83927286,-1.908311,-1.4686885,0.48178536,-1.3510616,-0.024248883,-0.97831136,-0.86448234,0.8876071,1.0733474,1.165338,-0.084514104,-0.9732807,-0.60780364,-1.0174423,-2.619778,-0.86447775,0.5825144,-0.07936669,-1.3283988,-2.0602536,-1.0378838,0.9396791,-0.8160313,-1.4323184,0.44951412,1.1172554,-0.38851345,-2.7206504,-1.1557286,0.84001344,0.7826291,-0.7652649,1.6125271,-0.9688686,0.41913533,0.712369,1.6970565,-0.5660424,-0.40435958,0.5906769,0.9196753,0.8719339,-0.8359221,-2.294089,-0.026073828,-0.4908365,-0.11985088,-1.6172378,1.0140177,1.1240547,0.32993314,0.1838404,0.9214125,2.2180462,0.5926356,0.40392148,0.5902197,0.51061994,0.44633657,-0.27549532,0.07759385,0.43193454,2.7579005,0.7744757,-1.9199988,-1.589206,0.31660357,0.5484688,-0.09783773,-0.118729085,-0.13976492,0.86869895
BOD08,-0.43742856,-0.24006532,-0.21669377,-0.21862474,0.7575656,-0.44641164,0.35953552,-1.7339119,-0.31895176,-0.5513491,-0.12029965,1.0544072,1.529487,0.10505284,0.33369783,-0.0678518,1.3034195,-0.27360854,1.3796095,-1.5068293,0.8591343,-0.18745151,-0.32567343,-0.6913922,0.7340801,-0.39669582,1.5660106,0.0007476399,-0.93450505,-0.7418244,0.4241917,0.21965326,0.90243393,0.26711354,0.19125447,1.1885691,1.544024,1.0621928,0.26332605,-0.97026396,0.034869816,-0.91528785,-3.1861217,0.46545866,-1.0328913,0.620246,-1.1189662,-1.1797637,-0.7458281,-0.9985373,-0.851513,0.57165426,1.9706489,0.51600754,0.07329071,-1.7433238,-1.8639452,1.2644675,0.067888126,-0.31158125,-1.0677603,-1.1997432,0.041309573,0.6519417,1.4015464,-1.3844316,-0.17029136,0.59645176,0.77440727,1.3671626,-1.0518211,-1.8640736,0.60672635,-0.67871517,-1.4355813,-0.9772256,-0.22078384,0.49850762,-0.0005241488,-0.66928256,1.0909637,0.6183105,0.8470645,0.35878852,0.16380744,-0.057284843,1.8515024,-1.2241161,-0.53794026,-0.9614123,1.2765638,0.53323746,-0.99476343,-0.58322275,0.36486667,0.73568654,-0.6658151,-0.73568416,-0.17871787,0.09692219
BRE15,0.4355933,-0.61654437,1.0123762,0.94297427,-0.06674654,-0.5355557,-0.0637135,-1.9663792,-0.19263065,-0.93641526,-0.03753922,0.3055846,1.2721211,0.52949977,0.8298784,0.346657,0.110111855,-0.23280518,0.82642275,-0.31035197,0.04077546,0.7133741,-0.9367314,-0.60744745,0.40644178,-2.070201,0.998052,-0.4394882,0.4193171,-1.2991973,-0.5270525,1.5750415,0.5082466,-0.69257355,0.6347472,-0.108122714,0.014594587,0.89965516,1.1186115,-0.6410658,-0.09812718,-0.25497413,-3.112001,-0.79258484,-1.3240508,0.48447558,-1.5207382,-0.3645489,-0.19484423,-0.4004841,-0.863241,0.72546715,0.5896708,0.5124395,0.75989115,-2.6249356,-0.812121,0.7870332,0.111811005,-0.8337575,-0.83446604,-1.1987009,0.72190654,1.3167282,0.76470935,-0.69331586,1.2369918,0.7131124,0.07363981,0.66180193,-0.6969679,-1.9675786,0.84541404,0.079225555,-0.5147078,0.3808473,0.5821561,0.1581024,1.1960247,-0.5252457,0.009202156,2.1521904,0.32805747,0.41442788,1.477594,0.99472123,1.6519421,-0.82716054,1.9682763,0.7441078,0.59849054,0.84452605,-0.4299202,-1.6957477,0.11580811,1.0408617,-0.21774873,-0.44421178,-1.1002636,0.071282215
LYO02,-0.9427145,0.41489926,-0.8535085,0.45324042,1.2607856,-0.12190782,-0.3015252,-1.7981268,-0.36431217,-1.1088071,0.32120758,-0.57282525,2.2924953,-0.6587162,0.0001595966,-1.1408075,0.79197264,-2.064055,1.3646687,-0.52086264,0.9829003,-0.013409717,-0.5204484,0.50479245,1.5138047,-0.59482926,0.41752824,1.2688453,-1.8724166,0.026476443,0.5245696,-0.19888414,-0.07357067,0.13786863,0.07266343,0.7138257,0.6759089,0.78754747,1.9954882,-0.25158063,0.8635705,0.08482377,-3.5485332,0.0679943,-1.6492802,0.37455952,-1.8460559,-1.285478,-0.67077047,-1.2318913,0.11154245,-0.32271683,0.83562887,1.5519997,0.96582514,-2.709818,-2.1435227,0.115128174,0.24925597,0.410479,0.4471882,-0.8842185,0.62231123,0.751192,1.7533414,-1.0055408,0.059853066,0.82056403,0.5997824,1.2546625,-0.94146377,-1.9453905,0.9779034,0.19584861,-0.08217114,-0.7359873,0.902099,0.86087394,0.93140894,-1.164632,-0.035633784,0.18992116,-0.23592465,0.13862655,1.3137122,1.4085056,2.0325704,-0.9155048,1.4484162,0.17099923,0.65880585,0.7751077,-1.806832,0.072064444,-0.5170688,0.6068135,-0.6783941,-0.3393658,-0.15796557,-0.95893663
BRE09,0.09485752,1.1080265,-1.029122,0.5350459,1.7697186,0.20045888,1.0419736,-1.3214909,0.33503208,-0.29686463,0.55256903,-0.07801994,1.6386856,0.56625056,-0.25885624,-0.03526067,0.08029393,-1.05818,1.9868271,-0.67057884,1.1490993,0.87954825,-0.05233689,0.5849231,2.0012915,-1.425059,0.35011673,1.2944981,-0.74877936,-0.042943645,-0.090096936,0.7598732,-0.0667481,-0.34046307,1.4032187,-0.3219883,0.5946035,1.4739999,0.3445372,-0.11434005,-0.40076736,-0.09393825,-2.6377826,-0.56778544,-0.45818612,-0.635722,-0.9093269,-1.4779888,-0.48071945,0.6083292,0.1421559,-0.6490686,0.91431135,1.2207206,-0.18183579,-2.2496912,-1.8157175,0.38251957,0.66873163,-1.8092912,-0.17468533,-0.554848,0.89312184,0.9000774,2.446237,-0.26258677,-0.91984385,0.9858635,0.031856813,1.5604146,-0.20300089,-1.8547258,0.10715461,0.08460496,-0.91227376,-0.7239625,0.10611076,1.5590712,0.90614885,-0.031362757,0.78784025,1.0196673,0.3789116,-0.5867679,0.27492073,0.5304782,0.82364994,0.07240307,0.11410326,-0.58972543,2.0168297,-0.3321967,0.029501682,-1.4127123,0.20035549,1.0296646,0.6031053,-1.1912146,-0.5919583,0.02187409
BRE13,-0.051795688,-0.23302566,-0.25080433,0.44755596,1.7996043,1.3120669,0.98997265,-1.7670256,-0.91837573,-0.5790339,-0.0515858,0.9914091,0.14038461,-0.67479056,0.2916499,1.2795126,-0.6336518,-0.30527124,0.84351826,-1.6168689,0.8991303,-0.118446425,-1.4703845,-0.21639419,1.2094676,-0.8409692,1.6887518,-0.8305451,0.090817325,-0.26422933,1.1423212,0.21285467,0.5539852,-1.9060578,-0.22299941,1.3110862,1.502093,1.078494,-0.094599366,-0.22537898,0.07433271,0.46573028,-2.7919445,-1.292651,-0.087368205,-1.1724008,-1.1319908,0.033230532,-0.84176266,1.4021851,-0.6614599,-0.26200742,1.1787269,2.185278,-0.21184576,-2.1839936,-1.8135943,1.2241827,0.49204174,-1.0377609,-1.4682503,-0.39138216,1.2108719,1.4947894,1.1469203,-1.1028918,-0.39379638,-0.034935173,-0.03697108,0.77462757,0.3163618,-2.021625,-0.37814453,0.14140567,-1.8372891,-0.01752877,-0.08905855,0.077318855,0.88387257,0.21304436,0.65380317,1.9119391,-0.15667897,1.6485639,-0.62727624,-0.31475323,1.3814219,0.3673253,2.033259,0.33640245,1.3877884,0.21562685,0.034173533,-1.4379418,-0.21084546,-0.22867289,-0.048909623,-0.63509816,-0.10021972,0.43794847
OCM13,0.16451456,0.6906502,0.5900773,-0.0494384,1.2253642,0.18495247,1.1486228,-1.0351902,0.068588294,1.5635053,0.47387952,1.7203494,1.108704,-0.97738206,0.05610697,0.32103908,0.16890536,-0.5855553,0.8238874,-0.26042956,-0.24824655,-0.0108324345,-1.6499567,0.56415606,0.5744581,-0.29246596,1.1633446,0.5763647,-0.26649293,-1.4130721,0.53103244,1.0236526,-0.37861603,-1.016864,0.50863034,0.8524899,0.68012136,1.2441187,1.5438025,-0.65562826,0.63759536,-0.02567571,-3.7454123,-0.25061312,0.49055165,0.69678354,-0.08628461,-1.9971386,-1.3347291,-0.53532785,-0.756749,-0.4295417,1.0524778,2.267178,-0.6845435,-2.0147922,-3.2370534,0.30317968,0.86401755,-2.1566718,-0.41614375,-0.83746254,1.571531,1.004358,0.06775567,0.6473605,-0.6829765,-0.5271959,0.39213672,1.3754458,-0.35747668,-1.7520183,0.39269605,-0.019908842,-0.40115198,-0.13992767,0.88778067,1.0755372,-0.5229871,-0.20638439,0.5976725,0.9782453,0.3439065,0.70445275,-1.1452479,0.5309537,0.7529131,1.2600107,0.5913406,0.64040977,0.6614934,-0.8134102,-2.1201134,-0.23627882,-0.40618646,2.2707107,1.0976692,-0.34950978,0.7516447,1.1344829
LOR08,0.40765226,-0.18878432,0.3076064,-0.04436868,0.83151716,-0.18149823,-0.49751332,-2.2147312,1.0254071,-0.49122202,-0.80034846,1.0401292,0.91287965,-1.0765158,0.7479648,-0.19403332,-0.00695091,0.06265865,0.025960686,-0.89015365,0.71077967,0.30000356,-1.1372268,0.20596097,-0.06533439,-1.0314167,1.0229758,0.81815815,-0.81156355,-0.66107243,0.38724488,0.97399175,-0.02955441,-0.12750238,-0.5037951,0.49862605,0.32466105,1.1507012,-0.93095833,-1.2335858,0.62049973,0.43354058,-3.2049615,-1.6658978,-1.0950525,-0.39512318,-1.9731792,-0.7069438,-1.435929,0.01568854,-1.1588832,-1.4490056,-0.011473973,1.4239713,0.59780854,-1.950771,-1.675804,0.67175835,-1.3628173,-0.70584494,0.011144617,-0.9984924,1.1707883,1.6001576,0.8722744,0.0644299,0.67027515,2.2877178,0.5747737,1.1638572,-0.61332095,-0.6991462,0.2925252,-0.41640207,-0.28113654,0.5821313,-0.0028041177,1.3296843,-0.22404663,-0.32125843,-0.31420135,0.9564868,0.53948027,0.7206384,0.72742474,0.12997665,0.67590255,0.16990158,0.46407104,-0.852572,1.9898279,1.4679521,-1.5687218,-1.0050292,0.6005651,1.0472467,-1.0531138,-0.1970229,0.21404876,2.391125
PES06,-0.3529229,0.27606395,0.023609065,0.19577828,1.3602238,0.62353706,0.32624283,-0.8412575,-0.43406475,0.46677172,0.290903,0.65842885,1.4309202,-0.18199046,1.4521943,-0.90604246,1.4105034,-1.1944051,1.7285339,-0.031479247,0.003809151,0.14979652,-1.2893798,0.053878475,0.38557398,-1.443183,0.8975802,-0.03653499,-0.36898947,-0.61249626,0.5259235,-0.45388716,-0.042889662,0.5757798,0.017246285,0.0035228021,0.6321176,0.9790464,1.203884,-0.68060666,0.23307458,-0.281542,-3.1606147,-1.1014158,-0.18406378,0.4495919,-1.5733987,-1.3778055,-0.94106436,-0.7435165,0.22106458,-0.7914541,0.9753894,1.3745553,0.35861722,-2.2494287,-1.880786,0.61147994,1.7581137,-0.73265195,0.48739007,-0.34031746,0.45720088,0.14379518,0.9114582,0.035393458,-0.1788613,0.3321746,0.311203,1.6801649,-0.52159125,-1.3889246,-0.36706087,-1.1125846,-1.1594385,0.5650228,0.49369398,0.7917993,1.0816544,-0.15399821,-0.10355909,1.7663206,1.0860416,0.12438002,-0.77267206,0.61054987,1.3688786,0.07323459,0.9652901,-0.74822026,1.1173189,1.1423627,-0.9284354,-0.13793963,0.67710435,0.4985102,0.44741842,0.42121655,0.5560459,0.5887172
BRE08,0.6395845,-0.59903437,0.3531609,-0.48938137,0.54800797,-0.55279994,0.95183676,-1.6560692,-0.67614275,0.51480013,0.10549806,1.471303,0.6423068,0.115056284,1.3089665,-0.7353378,-0.0055892095,0.19413309,1.4973817,-1.1397609,0.87950855,0.099037446,-1.7025373,0.12104983,0.38465562,-1.2214425,0.86006397,0.03754256,-1.5303477,-0.8515551,0.66314596,0.65443754,-0.30429298,0.32490125,-1.3911806,0.4380864,1.9574406,1.3331112,-0.68578196,-0.058132138,-0.53010225,0.030921742,-3.189307,-0.8681352,-0.5736366,0.942336,-2.389693,-0.020096181,-2.593206,0.39889485,0.9589983,-1.4141399,1.344502,0.581781,0.26654288,-2.5636759,-1.5451133,-0.10128768,0.2999455,-1.6778576,0.30475932,-0.60359204,1.7851661,0.7914529,2.0276868,-0.031673633,-0.5116787,0.42766732,-0.34706995,2.3908365,-1.1634811,-0.9503767,-0.16235067,-1.432405,-0.41353834,0.0074019404,0.32253626,1.5136857,0.27983782,0.58112895,0.50350124,2.1850407,0.56056565,0.4217472,1.2518053,0.43961874,-0.41346878,-0.9514125,0.28628057,-0.25178665,1.2673889,0.13713802,-1.1196697,-2.2001605,0.81679815,1.3728793,0.45436126,-0.04775291,0.12576745,0.2438656
LOR10,0.17489241,-0.6506034,0.41681322,-0.10004212,0.4440092,0.16107537,1.3843709,-1.023359,0.6171332,-0.6840092,0.74158347,-0.19457799,0.7401961,1.0935534,1.0825794,-0.31553534,-0.2110012,-0.47846597,1.461311,-0.26804397,-0.6007021,0.31755927,-0.436788,-0.027363777,0.65546745,-3.0669787,1.4097717,0.110380545,-0.9004765,-0.38484246,0.4370871,1.4331179,-0.16686295,-0.27054024,-0.519253,0.4133485,1.2959961,1.373465,-0.07866635,-1.1462139,0.1842484,-0.24999587,-3.0633516,-1.4410444,0.10656205,-0.23755181,-0.96447146,-0.8397558,-1.192782,-0.51582175,-0.8993148,-0.34137085,0.48190954,0.926422,-1.1886358,-2.1934276,-0.63529634,1.144698,1.547143,-0.326711,0.91383886,-1.0768722,0.40203077,0.42157653,1.4645841,0.18744667,0.46331882,0.34926766,0.18134259,1.7259237,-0.6677298,-1.7972438,0.7477571,0.20781387,-1.6897985,0.036970776,0.40785328,0.91441256,0.91396344,-0.79445285,1.0866418,1.5692828,0.66678274,-0.1763159,0.24386427,0.079323225,0.004119922,-0.41723105,0.74087596,-0.72057533,3.1787221,1.7101047,-1.1605504,-1.162111,0.38779145,0.7291277,0.28780663,-0.6197795,0.58808917,0.12480061
NOR04,1.8602602,-1.0765281,1.0059104,0.27874565,1.2674505,0.713707,0.26621523,-2.0520425,1.0344037,0.08179405,-0.47204134,-0.18841425,0.38731056,-0.17025866,-0.09954514,0.1844284,-0.389633,-1.9002372,1.5077788,-1.8731354,-0.9398885,0.27946776,-0.65703577,-0.25831077,1.5221875,-1.9402969,0.8857643,-0.117879376,-0.25747785,-1.0959202,0.9182688,1.7262763,0.5518478,0.50247717,0.15709956,0.057174418,1.6424605,1.020044,-0.26800278,0.47627425,-0.79923236,0.42584792,-3.2777812,-0.16657642,-0.92689365,0.1107403,-2.3258545,-1.111633,-0.46748683,-0.48580968,-0.050151613,0.48080164,1.0227091,0.43500188,0.52582455,-2.821672,-1.0373555,-0.38003144,0.39657933,-0.943146,-0.059456382,-1.8725079,1.1836872,0.5962113,0.06559695,-0.21102066,0.33815393,0.46863133,0.8129378,2.5309453,-1.3620765,-2.182556,1.0401263,-0.94234115,-0.008464594,0.09902873,-0.8330226,0.20707594,-0.23687048,-2.0847704,0.5788392,0.32546356,1.0071965,1.4297447,1.0658336,0.7494095,1.5550686,-0.21522406,1.7172287,0.3689166,2.3071876,1.6313806,-2.2126071,-1.8053463,0.69114643,1.5891443,0.39708915,-0.13544928,-1.0852188,0.21540996
CVL01,0.54027325,0.41881272,-0.23930916,0.24733666,1.1576015,-0.71322393,-0.59652215,-2.038463,0.16422957,-0.4919381,-0.80775166,0.4725312,0.30893978,-0.8567497,1.9246765,-0.5756275,0.14613377,0.2715845,0.5753037,-1.2098708,0.25743335,0.009344376,-1.3485197,-0.860026,0.8220002,-0.7292185,1.955894,-0.24858683,-2.4265666,-1.1186837,1.2611921,-0.06405557,0.40134737,0.30768663,-0.2446034,1.6793607,0.13673525,1.7439244,0.21317583,0.20488326,0.56280106,-0.20262912,-3.8977456,-1.6143365,-1.5502,0.19951792,-1.8541754,-1.6924595,-2.1817071,0.93149304,-0.77560633,-1.1492164,1.2079139,1.2475251,0.561755,-2.9091754,-2.4607317,0.4412049,0.025037196,-1.3301135,0.7659503,-0.45707077,0.4908908,1.5174904,2.2780914,-0.8059633,1.000922,0.09441247,-0.29267547,1.2546415,-0.9423749,-1.5200816,-0.3138686,0.75225073,-0.42011413,0.4692048,-0.36479792,1.1136891,0.5048011,-0.118619725,-0.08881129,1.6083348,1.2299962,0.7652087,0.4855824,0.40221226,1.7063936,0.6140299,0.38731968,-0.3754724,1.9723264,0.006795144,-0.86973506,-0.63391113,0.9933794,0.89078176,-0.22651356,-0.47075272,-1.3259808,0.20666233
